{"learner":{"attributes":{"scikit_learn":"{\"_estimator_type\": \"regressor\"}"},"feature_names":["store_id","day_of_week","holiday_flg","genre_name","area_name","latitude","longitude","year","month","day","lag_area_genre_day_of_week_21","lag_area_genre_holiday_flg_21","lag_day_of_week_21","lag_holiday_flg_21","lag_area_genre_day_of_week_35","lag_area_genre_holiday_flg_35","lag_day_of_week_35","lag_holiday_flg_35","lag_area_genre_day_of_week_61","lag_area_genre_holiday_flg_61","lag_day_of_week_61","lag_holiday_flg_61","lag_area_genre_day_of_week_91","lag_area_genre_holiday_flg_91","lag_day_of_week_91","lag_holiday_flg_91","lag_area_genre_day_of_week_182","lag_area_genre_holiday_flg_182","lag_day_of_week_182","lag_holiday_flg_182","lag_area_genre_day_of_week_273","lag_area_genre_holiday_flg_273","lag_day_of_week_273","lag_holiday_flg_273","lag_area_genre_day_of_week_365","lag_area_genre_holiday_flg_365","lag_day_of_week_365","lag_holiday_flg_365"],"feature_types":["c","c","float","c","c","float","float","float","float","float","float","float","float","float","float","float","float","float","float","float","float","float","float","float","float","float","float","float","float","float","float","float","float","float","float","float","float","float"],"gradient_booster":{"model":{"gbtree_model_param":{"num_parallel_tree":"1","num_trees":"50"},"iteration_indptr":[0,1,2,3,4,5,6,7,8,9,10,11,12,13,14,15,16,17,18,19,20,21,22,23,24,25,26,27,28,29,30,31,32,33,34,35,36,37,38,39,40,41,42,43,44,45,46,47,48,49,50],"tree_info":[0,0,0,0,0,0,0,0,0,0,0,0,0,0,0,0,0,0,0,0,0,0,0,0,0,0,0,0,0,0,0,0,0,0,0,0,0,0,0,0,0,0,0,0,0,0,0,0,0,0],"trees":[{"base_weights":[5.510914E-7,-7.5037465E0,1.805173E1,-1.2771567E1,-1.6141434E0,1.3072298E1,3.6340675E1,-1.5842432E1,-1.0321819E1,-4.384281E0,1.9483452E0,9.38908E0,1.8869806E1,3.2473633E1,6.333318E1,-1.7902891E1,-1.4700188E1,-1.1782725E1,-8.923505E0,-5.8992248E0,-2.842919E0,2.2654232E-1,3.4407434E0,7.0035734E0,1.1472168E1,1.6233704E1,2.1542992E1,2.8792665E1,3.9013603E1,1.6165714E2,6.138164E1,-1.9187826E0,-1.7298008E0,-1.5548924E0,-1.395799E0,-1.2462192E0,-1.1068883E0,-9.7144216E-1,-8.3124876E-1,-6.581891E-1,-5.0331795E-1,-3.6602947E-1,-1.9563407E-1,-5.5171844E-2,1.07506745E-1,2.8499916E-1,4.5411316E-1,6.839168E-1,1.2578926E0,1.1298872E0,1.8771054E0,1.6056076E0,2.8673873E0,2.0088804E0,2.2889268E0,2.674887E0,3.1093428E0,3.6333034E0,4.288232E0,5.6357827E0,2.2073347E1,5.130343E0,7.1775165E0],"categories":[0,1,2,3,4,5,6,7,8,9,10,11,12,13,14,15,16,17,18,19,21,22,23,24,25,26,27,28,29,30,31,32,33,34,35,36,37,38,39,40,41,42,43,44,45,46,47,48,49,50,51,52,53,54,55,56,57,58,59,60,61,62,63,64,65,66,67,68,69,70,71,72,73,74,75,76,77,78,79,80,81,82,83,84,85,86,87,88,89,90,91,92,93,94,95,96,97,98,99,100,101,102,103,104,105,106,107,108,109,110,111,112,113,114,115,116,117,118,119,120,121,122,123,124,125,126,127,128,129,130,131,132,133,134,135,136,137,138,139,140,141,142,143,144,145,146,147,148,149,150,151,152,153,154,155,156,157,158,159,160,161,162,163,164,165,166,167,168,169,170,171,172,173,174,175,176,177,178,179,180,181,182,183,184,185,186,187,188,189,190,191,192,193,194,195,196,197,198,199,200,202,203,204,205,206,207,208,209,210,211,212,213,214,215,216,217,218,219,220,221,222,223,224,225,226,227,228,229,230,231,232,233,234,235,236,237,238,239,240,241,242,243,244,245,246,247,248,249,250,251,252,253,254,255,256,257,258,259,260,261,262,263,264,265,266,267,268,269,270,271,272,273,274,275,276,277,278,279,280,281,282,283,284,285,286,287,288,289,290,291,292,293,294,295,296,297,298,299,300,301,302,303,304,305,306,307,308,309,310,311,312,313,314,315,316,317,318,319,320,321,322,323,324,325,326,327,328,329,330,331,332,333,334,335,336,337,338,339,340,341,342,343,344,345,346,347,348,349,350,351,352,353,354,355,356,357,358,359,360,361,362,363,364,365,366,367,368,369,370,371,372,373,374,375,376,377,378,379,380,381,382,383,384,385,386,387,388,389,390,391,392,393,394,395,396,397,398,399,400,401,402,403,404,406,407,408,409,410,411,412,413,414,415,416,417,418,419,420,421,422,423,424,425,426,427,428,429,430,431,432,433,434,435,436,437,438,439,441,442,443,444,445,446,447,448,449,450,451,452,453,454,455,456,457,458,459,460,461,462,463,464,465,466,467,468,469,470,471,472,473,474,475,476,477,478,479,480,481,482,483,484,485,486,487,488,489,490,491,492,494,495,496,497,498,499,500,501,502,503,504,505,506,507,508,509,510,511,512,513,514,515,516,517,518,519,520,521,522,523,524,525,526,527,528,529,530,531,532,533,534,535,536,537,538,539,540,541,542,543,544,545,546,547,548,549,550,551,552,553,554,555,556,557,558,559,560,561,562,563,564,565,566,567,568,569,570,571,572,573,574,575,576,577,578,579,580,581,582,583,584,585,586,587,588,589,590,591,592,593,594,595,596,597,598,599,600,601,602,603,604,605,606,607,608,609,610,611,612,613,614,615,616,617,618,619,620,621,622,623,624,625,626,627,628,629,630,631,632,633,634,635,636,637,638,639,640,641,642,643,644,645,646,647,648,649,650,651,652,653,654,655,656,657,658,659,660,661,662,663,664,665,666,667,668,669,670,671,672,673,674,675,676,677,678,680,681,682,683,684,685,686,687,688,689,690,691,692,693,694,695,696,697,698,699,700,701,702,703,704,705,706,707,708,709,710,711,712,713,714,715,716,717,718,719,720,721,722,723,724,725,726,727,728,729,730,731,732,733,734,735,736,737,738,739,741,742,743,744,745,746,747,748,749,750,751,752,753,754,755,756,757,758,759,760,761,762,763,764,765,766,768,769,770,771,772,773,774,775,776,777,778,779,780,781,782,783,784,785,786,787,788,789,790,791,793,794,795,796,797,798,799,800,801,802,803,804,805,806,807,808,809,810,811,812,813,814,815,816,817,818,819,820,821,822,823,824,825,826,827,828],"categories_nodes":[14],"categories_segments":[0],"categories_sizes":[820],"default_left":[0,0,0,0,0,0,0,0,0,0,0,0,0,0,0,0,0,0,0,0,0,0,0,0,0,0,0,0,0,0,0,0,0,0,0,0,0,0,0,0,0,0,0,0,0,0,0,0,0,0,0,0,0,0,0,0,0,0,0,0,0,0,0],"id":0,"left_children":[1,3,5,7,9,11,13,15,17,19,21,23,25,27,29,31,33,35,37,39,41,43,45,47,49,51,53,55,57,59,61,-1,-1,-1,-1,-1,-1,-1,-1,-1,-1,-1,-1,-1,-1,-1,-1,-1,-1,-1,-1,-1,-1,-1,-1,-1,-1,-1,-1,-1,-1,-1,-1],"loss_changes":[3.414971E7,5.525103E6,6.740966E6,7.07015E5,8.297689E5,1.242297E6,1.651444E6,9.7908E4,1.06719E5,1.1043469E5,9.4512266E4,1.767395E5,1.58936E5,3.32486E5,3.70773E5,1.1227E4,1.6691E4,1.2265E4,1.28335E4,1.40698125E4,1.6984844E4,1.1279116E4,1.2795125E4,1.51206875E4,2.3813E4,2.4697E4,2.1506E4,4.08825E4,5.017E4,2.2394656E5,2.002625E5,0E0,0E0,0E0,0E0,0E0,0E0,0E0,0E0,0E0,0E0,0E0,0E0,0E0,0E0,0E0,0E0,0E0,0E0,0E0,0E0,0E0,0E0,0E0,0E0,0E0,0E0,0E0,0E0,0E0,0E0,0E0,0E0],"parents":[2147483647,0,0,1,1,2,2,3,3,4,4,5,5,6,6,7,7,8,8,9,9,10,10,11,11,12,12,13,13,14,14,15,15,16,16,17,17,18,18,19,19,20,20,21,21,22,22,23,23,24,24,25,25,26,26,27,27,28,28,29,29,30,30],"right_children":[2,4,6,8,10,12,14,16,18,20,22,24,26,28,30,32,34,36,38,40,42,44,46,48,50,52,54,56,58,60,62,-1,-1,-1,-1,-1,-1,-1,-1,-1,-1,-1,-1,-1,-1,-1,-1,-1,-1,-1,-1,-1,-1,-1,-1,-1,-1,-1,-1,-1,-1,-1,-1],"split_conditions":[3.7089428E-1,-4.992815E-1,1.7219566E0,-8.8857067E-1,-6.4193614E-2,9.8917705E-1,3.256214E0,-1.1175643E0,-7.053758E-1,-2.9318723E-1,1.19001284E-1,6.2278724E-1,1.2868688E0,2.3402395E0,NaN,-1.2549604E0,-1.0030675E0,-7.969732E-1,-6.137783E-1,-3.847847E-1,-1.7869043E-1,2.7403835E-2,2.7929682E-1,1.8189481E0,2.1502976E0,2.71026E0,1.4700637E0,1.996749E0,2.7295287E0,2.720738E0,3.8515973E0,-1.9187826E0,-1.7298008E0,-1.5548924E0,-1.395799E0,-1.2462192E0,-1.1068883E0,-9.7144216E-1,-8.3124876E-1,-6.581891E-1,-5.0331795E-1,-3.6602947E-1,-1.9563407E-1,-5.5171844E-2,1.07506745E-1,2.8499916E-1,4.5411316E-1,6.839168E-1,1.2578926E0,1.1298872E0,1.8771054E0,1.6056076E0,2.8673873E0,2.0088804E0,2.2889268E0,2.674887E0,3.1093428E0,3.6333034E0,4.288232E0,5.6357827E0,2.2073347E1,5.130343E0,7.1775165E0],"split_indices":[12,12,12,12,12,12,12,12,12,12,12,12,12,12,0,12,12,12,12,12,12,12,12,13,13,13,12,12,12,24,12,0,0,0,0,0,0,0,0,0,0,0,0,0,0,0,0,0,0,0,0,0,0,0,0,0,0,0,0,0,0,0,0],"split_type":[0,0,0,0,0,0,0,0,0,0,0,0,0,0,1,0,0,0,0,0,0,0,0,0,0,0,0,0,0,0,0,0,0,0,0,0,0,0,0,0,0,0,0,0,0,0,0,0,0,0,0,0,0,0,0,0,0,0,0,0,0,0,0],"sum_hessian":[2.52108E5,1.78083E5,7.4025E4,9.4003E4,8.408E4,5.8185E4,1.584E4,4.1711E4,5.2292E4,4.73E4,3.678E4,3.5582E4,2.2603E4,1.3857E4,1.983E3,1.4871E4,2.684E4,2.557E4,2.6722E4,2.3853E4,2.3447E4,1.7078E4,1.9702E4,1.6589E4,1.8993E4,1.1384E4,1.1219E4,8.87E3,4.987E3,3.7E1,1.946E3,4.75E3,1.0121E4,1.2512E4,1.4328E4,1.3092E4,1.2478E4,1.164E4,1.5082E4,1.3335E4,1.0518E4,1.2198E4,1.1249E4,8.908E3,8.17E3,1.2822E4,6.88E3,1.6116E4,4.73E2,1.8555E4,4.38E2,1.1226E4,1.58E2,5.401E3,5.818E3,4.704E3,4.166E3,2.952E3,2.035E3,1.4E1,2.3E1,9.91E2,9.55E2],"tree_param":{"num_deleted":"0","num_feature":"38","num_nodes":"63","size_leaf_vector":"1"}},{"base_weights":[2.2194957E-4,-6.7534375E0,1.6247469E1,-1.137077E1,-1.310644E0,1.1765305E1,3.271E1,-1.40493555E1,-8.985981E0,-3.817532E0,1.7535323E0,8.199958E0,1.6622755E1,2.9227259E1,5.7020035E1,-1.5744234E1,-1.2784243E1,-1.0140315E1,-7.587773E0,-4.922551E0,-2.2453623E0,2.0389168E-1,3.0967062E0,6.3033338E0,1.0053738E1,1.4306963E1,1.9389076E1,2.5914051E1,3.511383E1,1.4964354E2,5.532832E1,-1.6949335E0,-1.5025531E0,-1.3455845E0,-1.2078208E0,-1.0771625E0,-9.379811E-1,-8.035411E-1,-6.834583E-1,-5.6891435E-1,-4.095776E-1,-1.5674034E0,-2.2162358E-1,3.6257625E-1,4.299063E-3,6.1475015E-1,2.898341E-1,1.0100971E0,6.0817784E-1,9.900097E-1,1.6681381E0,1.4150416E0,2.599792E0,1.915645E0,2.7202747E0,2.4548786E0,2.8795705E0,3.2700965E0,3.8596191E0,5.670938E0,2.2491919E1,4.617826E0,6.473555E0],"categories":[0,1,2,3,4,5,6,7,8,9,10,11,12,13,14,15,16,17,18,19,21,22,23,24,25,26,27,28,29,30,31,32,33,34,35,36,37,38,39,40,41,42,43,44,45,46,47,48,49,50,51,52,53,54,55,56,57,58,59,60,61,62,63,64,65,66,67,68,69,70,71,72,73,74,75,76,77,78,79,80,81,82,83,84,85,86,87,88,89,90,91,92,93,94,95,96,97,98,99,100,101,102,103,104,105,106,107,108,109,110,111,112,113,114,115,116,117,118,119,120,121,122,123,124,125,126,127,128,129,130,131,132,133,134,135,136,137,138,139,140,141,142,143,144,145,146,147,148,149,150,151,152,153,154,155,156,157,158,159,160,161,162,163,164,165,166,167,168,169,170,171,172,173,174,175,176,177,178,179,180,181,182,183,184,185,186,187,188,189,190,191,192,193,194,195,196,197,198,199,200,202,203,204,205,206,207,208,209,210,211,212,213,214,215,216,217,218,219,220,221,222,223,224,225,226,227,228,229,230,231,232,233,234,235,236,237,238,239,240,241,242,243,244,245,246,247,248,249,250,251,252,253,254,255,256,257,258,259,260,261,262,263,264,265,266,267,268,269,270,271,272,273,274,275,276,277,278,279,280,281,282,283,284,285,286,287,288,289,290,291,292,293,294,295,296,297,298,299,300,301,302,303,304,305,306,307,308,309,310,311,312,313,314,315,316,317,318,319,320,321,322,323,324,325,326,327,328,329,330,331,332,333,334,335,336,337,338,339,340,341,342,343,344,345,346,347,348,349,350,351,352,353,354,355,356,357,358,359,360,361,362,363,364,365,366,367,368,369,370,371,372,373,374,375,376,377,378,379,380,381,382,383,384,385,386,387,388,389,390,391,392,393,394,395,396,397,398,399,400,401,402,403,404,405,406,407,408,409,410,411,412,413,414,415,416,417,418,419,420,421,422,423,424,425,426,427,428,429,430,431,432,433,434,435,436,437,438,439,441,442,443,444,445,446,447,448,449,450,451,452,453,454,455,456,457,458,459,460,461,462,463,464,465,466,467,468,469,470,471,472,473,474,475,476,477,478,479,480,481,482,483,484,485,486,487,488,489,490,491,492,494,495,496,497,498,499,500,501,502,503,504,505,506,507,508,509,510,511,512,513,514,515,516,517,518,519,520,521,522,523,524,525,526,527,528,529,530,531,532,533,534,535,536,537,538,539,540,541,542,543,544,545,546,547,548,549,550,551,552,553,554,555,556,557,558,559,560,561,562,563,564,565,566,567,568,569,570,571,572,573,574,575,576,577,578,579,580,581,582,583,584,585,586,587,588,589,590,591,592,593,594,595,596,597,598,599,600,601,602,603,604,605,606,607,608,609,610,611,612,613,614,615,616,617,618,619,620,621,622,623,624,625,626,627,628,629,630,631,632,633,634,635,636,637,638,639,640,641,642,643,644,645,646,647,648,649,650,651,652,653,654,655,656,657,658,659,660,661,662,663,664,665,666,667,668,669,670,671,672,673,674,675,676,677,678,680,681,682,683,684,685,686,687,688,689,690,691,692,693,694,695,696,697,698,699,700,701,702,703,704,705,706,707,708,709,710,711,712,713,714,715,716,717,718,719,720,721,722,723,724,725,726,727,728,729,730,731,732,733,734,735,736,737,738,739,741,742,743,744,745,746,747,748,749,750,751,752,753,754,755,756,757,758,759,760,761,762,763,764,765,766,768,769,770,771,772,773,774,775,776,777,778,779,780,781,782,783,784,785,786,787,788,789,790,791,793,794,795,796,797,798,799,800,801,802,803,804,805,806,807,808,809,810,811,812,813,814,815,816,817,818,819,820,821,822,823,824,825,826,827,828,0,1,2,3,4,5,6,7,8,9,10,11,12,13,14,15,16,17,18,19,20,21,23,24,25,26,27,28,29,30,31,32,33,34,35,36,37,38,39,40,41,42,43,44,45,46,47,48,49,50,51,52,53,54,55,56,57,58,59,60,61,62,65,66,67,68,69,70,71,72,73,74,75,76,77,78,79,80,81,83,84,85,86,87,88,89,90,91,92,93,94,96,97,98,99,100,101,102,103,104,105,106,107,108,109,110,111,112,113,114,115,116,118,119,120,121,122,123,124,125,126,128,129,130,131,132,133,134,135,136,137,138,139,140,141,142,143,144,145,146,147,148,149,150,151,152,153,154,155,156,157,158,160,161,162,163,164,165,166,167,168,169,170,171,172,173,174,175,176,177,178,179,180,181,182,183,184,185,186,188,189,190,191,192,193,194,195,196,197,198,199,200,201,202,203,204,205,206,207,208,209,213,214,215,216,217,218,219,220,222,223,224,225,226,227,228,229,230,231,232,233,234,235,236,237,238,239,241,242,243,244,245,246,247,248,249,250,251,252,253,254,255,256,257,258,259,260,261,262,263,265,266,267,269,270,271,272,275,276,277,278,279,280,281,282,283,284,285,286,287,288,289,291,292,293,294,295,296,297,298,300,301,302,303,304,305,306,307,308,309,311,312,313,314,315,316,317,318,319,320,321,322,324,325,326,327,328,329,330,331,332,333,334,335,336,337,338,339,340,341,342,343,344,345,346,347,348,349,350,351,352,353,354,355,357,358,360,361,362,364,365,366,368,369,370,372,373,374,375,376,377,378,379,380,381,382,383,384,385,386,387,388,389,390,391,392,393,394,395,396,397,399,400,401,403,404,405,406,407,408,409,410,411,412,413,414,415,416,417,418,419,420,421,422,423,424,425,426,427,429,430,431,432,433,434,435,436,437,439,440,441,442,443,445,446,447,449,450,451,452,453,454,455,456,457,458,459,460,461,462,463,464,465,466,467,468,469,470,471,472,473,474,475,476,477,478,479,480,481,482,483,484,485,487,488,489,491,492,493,494,496,497,498,499,500,501,502,503,504,505,506,507,508,509,512,514,515,516,517,518,519,520,521,522,523,524,525,526,527,528,529,530,531,532,533,534,535,536,537,538,539,541,542,543,544,545,546,547,548,549,550,552,553,554,555,556,557,558,559,560,561,562,563,564,565,566,567,568,569,570,571,572,573,574,575,576,577,578,579,580,582,583,584,585,586,587,588,589,590,591,592,593,594,595,596,598,599,600,601,602,603,604,605,606,609,610,611,612,613,614,615,617,618,619,620,621,622,623,624,625,626,627,628,629,630,631,632,633,634,635,636,637,638,639,640,641,643,644,645,647,648,649,650,651,652,653,655,656,657,658,659,660,661,662,663,664,665,666,669,670,671,672,673,674,675,676,677,678,679,680,681,682,683,684,685,686,687,688,689,690,691,692,694,695,696,697,698,699,700,701,702,703,704,705,706,707,708,709,710,711,712,713,714,715,716,717,718,719,722,723,724,725,726,727,728,729,730,731,732,734,735,736,737,738,739,740,741,742,745,746,747,748,749,750,751,752,753,754,755,756,757,758,759,760,761,762,763,764,765,766,767,768,769,770,771,773,774,775,776,777,778,779,780,781,783,784,785,786,787,788,790,791,792,793,794,795,796,797,799,800,801,802,803,804,805,807,808,809,810,812,813,814,815,816,817,818,819,820,821,822,823,824,825,826,827,828,0,1,2,3,5,6,7,8,9,11,12,13,14,15,16,17,18,19,20,21,22,23,24,25,26,27,28,29,30,31,32,33,34,35,36,37,38,39,40,42,43,44,45,46,47,48,49,50,51,53,54,56,58,59,60,62,63,64,65,66,67,68,70,71,72,73,74,75,76,77,78,80,81,82,83,85,86,87,88,89,90,91,92,93,94,95,96,97,98,99,100,101,102,103,104,105,106,107,108,109,110,111,112,113,114,115,116,117,118,119,120,121,122,123,124,126,127,128,130,131,132,133,134,135,136,137,138,139,140,141,142,143,144,145,146,147,149,150,151,152,153,154,155,156,157,158,159,160,161,162,163,164,165,166,167,169,170,171,172,173,174,175,176,177,179,180,181,183,184,185,188,189,190,191,193,194,195,196,197,198,199,200,201,202,203,204,205,206,207,208,209,210,211,212,213,214,215,216,217,218,219,220,221,222,223,224,225,226,227,228,229,230,231,232,233,234,235,236,237,238,239,240,241,242,243,244,245,246,247,248,249,250,251,252,253,254,255,256,257,258,260,261,262,263,264,265,266,267,268,269,270,272,274,275,276,278,279,280,281,282,283,284,285,286,287,288,289,290,292,293,294,295,296,297,298,299,302,303,304,306,307,308,309,310,311,312,313,314,315,316,317,318,319,320,321,322,323,324,326,327,328,329,330,331,332,334,335,336,337,338,339,340,341,342,343,344,345,346,347,348,349,350,351,352,354,355,356,357,358,359,360,361,362,363,364,365,366,367,368,369,370,372,373,374,375,376,377,378,379,380,381,382,383,384,385,386,387,388,389,390,391,392,394,395,396,397,398,399,400,401,403,404,405,406,407,408,409,410,411,412,413,414,415,416,417,418,419,420,421,422,423,424,425,426,427,428,429,430,431,432,433,434,436,437,438,439,440,441,442,443,444,445,446,447,449,450,451,452,453,454,455,456,458,459,460,461,462,463,464,465,466,467,468,469,470,471,472,473,474,475,476,477,478,479,480,481,483,484,485,486,487,488,489,490,491,492,493,494,495,496,497,498,500,501,502,503,504,505,506,507,508,509,510,512,513,514,516,517,518,519,520,521,523,524,525,527,528,529,530,531,532,533,534,535,536,537,538,539,541,542,543,544,545,546,547,548,549,550,551,553,554,555,556,557,558,559,560,561,562,563,564,565,566,567,568,569,570,571,572,573,574,575,576,577,579,580,581,582,583,584,585,586,587,588,589,590,591,592,593,594,595,596,597,598,599,600,601,602,603,604,605,606,607,608,609,611,612,613,614,616,617,618,619,620,621,622,623,624,625,627,628,629,630,631,632,633,634,635,636,637,638,639,640,641,642,643,644,645,646,647,648,649,651,652,653,654,655,656,657,658,659,660,661,662,663,664,665,667,668,669,670,671,672,673,674,675,676,677,678,679,680,681,682,683,684,685,686,687,688,689,690,691,692,693,694,695,696,697,698,699,700,701,702,703,704,707,708,709,711,713,714,715,716,717,718,719,720,721,722,723,724,726,727,728,729,730,731,732,733,734,736,737,738,739,740,741,742,743,744,745,746,747,748,749,750,751,753,754,755,756,759,760,761,762,764,765,766,767,768,769,770,771,772,773,774,775,776,777,778,779,780,781,782,783,784,785,786,787,788,789,790,791,792,794,795,796,797,798,799,800,801,802,803,804,806,807,808,809,810,811,812,813,814,815,816,817,818,819,820,821,822,823,824,826,827,828,0,1,3,4,5,6,7,8,9,10,11,12,13,14,16,17,19,20,21,23,24,25,26,27,29,30,31,32,33,34,35,36,37,38,39,40,41,42,43,44,45,46,47,48,50,51,52,53,54,55,56,57,58,59,60,61,62,63,64,65,66,67,68,69,70,71,72,73,74,75,76,77,79,80,81,82,83,84,85,86,87,88,89,90,91,92,93,94,95,96,97,98,99,100,101,104,105,106,107,108,110,111,112,113,114,115,117,118,119,120,121,122,123,125,126,127,128,129,130,131,132,134,135,136,137,138,139,141,142,143,144,145,146,147,148,149,150,151,152,153,154,155,157,158,159,161,163,164,165,166,167,168,169,170,171,172,173,174,175,176,177,178,179,180,181,182,183,184,185,186,187,188,189,191,192,193,194,195,196,197,198,199,200,201,202,203,204,205,207,208,209,210,211,212,213,214,215,216,218,220,221,222,223,224,225,226,227,228,229,230,231,232,233,234,235,236,237,238,239,240,241,242,243,244,247,248,249,250,251,252,254,255,256,257,258,259,260,261,262,263,264,266,267,268,269,271,272,274,275,276,277,278,279,280,281,282,283,284,285,286,287,288,289,290,291,292,293,294,295,296,297,298,299,301,302,303,304,305,306,307,308,310,311,312,313,314,315,316,317,318,319,320,321,322,323,324,325,326,327,328,329,330,331,332,333,334,335,336,337,338,339,341,342,343,345,346,347,348,349,350,351,352,354,355,356,357,358,359,360,361,362,363,364,365,366,367,368,369,370,371,373,374,375,376,377,378,379,380,381,382,383,384,385,386,387,388,389,390,391,392,393,394,395,396,397,399,400,401,403,404,405,406,407,408,409,410,411,412,413,414,415,416,417,418,419,420,421,422,423,424,425,426,427,428,429,430,431,432,433,434,435,436,437,438,439,440,441,442,443,444,445,446,447,448,449,450,451,452,453,454,455,456,457,458,459,460,461,462,463,464,465,466,467,468,469,470,471,472,473,474,475,476,477,478,479,480,481,483,484,485,486,488,489,490,491,492,493,494,496,497,498,499,500,501,502,503,504,505,506,507,508,509,511,512,513,514,515,516,517,518,519,520,521,522,523,524,525,526,527,529,530,531,532,533,534,535,536,537,538,539,540,541,542,543,544,545,546,547,548,549,550,551,552,553,554,555,556,557,558,559,560,561,562,563,564,565,566,567,568,570,571,572,573,574,575,576,577,578,580,581,582,583,584,585,586,587,588,589,591,592,593,594,595,596,597,599,600,601,602,603,604,606,607,608,609,610,611,612,613,614,615,616,617,619,620,621,622,623,624,625,626,627,628,629,630,631,633,634,635,636,637,638,639,640,641,642,643,644,645,646,647,648,649,650,651,652,653,654,655,656,657,658,659,660,661,662,663,664,665,666,667,668,669,670,672,673,674,675,676,677,678,679,680,681,682,683,684,685,686,687,688,689,691,692,693,694,697,698,699,700,701,702,703,704,705,707,708,709,710,711,712,713,714,715,716,717,719,720,721,722,723,724,725,726,727,728,730,731,732,733,734,735,736,737,738,739,740,741,742,744,745,747,749,750,751,752,753,754,755,756,757,758,759,760,761,762,763,764,765,766,767,768,769,770,771,772,773,774,775,776,777,778,779,780,781,782,783,784,786,787,788,789,791,792,793,794,795,796,798,799,800,801,803,805,806,807,808,809,810,811,812,813,814,815,816,818,819,820,821,822,823,824,825,826,827,828],"categories_nodes":[14,21,22,23],"categories_segments":[0,821,1587,2353],"categories_sizes":[821,766,766,766],"default_left":[0,0,0,0,0,0,0,0,0,0,0,0,0,0,0,0,0,0,0,0,0,0,0,0,0,0,0,0,0,0,0,0,0,0,0,0,0,0,0,0,0,0,0,0,0,0,0,0,0,0,0,0,0,0,0,0,0,0,0,0,0,0,0],"id":1,"left_children":[1,3,5,7,9,11,13,15,17,19,21,23,25,27,29,31,33,35,37,39,41,43,45,47,49,51,53,55,57,59,61,-1,-1,-1,-1,-1,-1,-1,-1,-1,-1,-1,-1,-1,-1,-1,-1,-1,-1,-1,-1,-1,-1,-1,-1,-1,-1,-1,-1,-1,-1,-1,-1],"loss_changes":[2.7663618E7,4.475449E6,5.461828E6,6.15332E5,6.278733E5,1.007557E6,1.33952E6,9.7096E4,8.2192E4,7.809175E4,7.65567E4,1.17924E5,1.575015E5,2.69369E5,3.025985E5,1.6539E4,1.21605E4,1.33025E4,7.71825E3,1.6709E4,7.2238438E3,9.403244E3,1.1905875E4,1.38971875E4,1.7114E4,2.417525E4,1.98735E4,3.41935E4,4.0649E4,2.3209369E5,1.6486E5,0E0,0E0,0E0,0E0,0E0,0E0,0E0,0E0,0E0,0E0,0E0,0E0,0E0,0E0,0E0,0E0,0E0,0E0,0E0,0E0,0E0,0E0,0E0,0E0,0E0,0E0,0E0,0E0,0E0,0E0,0E0,0E0],"parents":[2147483647,0,0,1,1,2,2,3,3,4,4,5,5,6,6,7,7,8,8,9,9,10,10,11,11,12,12,13,13,14,14,15,15,16,16,17,17,18,18,19,19,20,20,21,21,22,22,23,23,24,24,25,25,26,26,27,27,28,28,29,29,30,30],"right_children":[2,4,6,8,10,12,14,16,18,20,22,24,26,28,30,32,34,36,38,40,42,44,46,48,50,52,54,56,58,60,62,-1,-1,-1,-1,-1,-1,-1,-1,-1,-1,-1,-1,-1,-1,-1,-1,-1,-1,-1,-1,-1,-1,-1,-1,-1,-1,-1,-1,-1,-1,-1,-1],"split_conditions":[3.7089428E-1,-4.7638214E-1,1.7219566E0,-8.656713E-1,-6.4193614E-2,9.433783E-1,3.256214E0,-1.0717655E0,-6.59577E-1,-2.4738851E-1,1.19001284E-1,6.2278724E-1,1.2868688E0,2.3402395E0,NaN,-1.2091618E0,-9.572688E-1,-7.511745E-1,-5.4508024E-1,-3.6188534E-1,-1.2317983E0,NaN,NaN,NaN,2.1502976E0,2.71026E0,2.71026E0,2.0883465E0,2.7295287E0,1.8655481E0,3.8515973E0,-1.6949335E0,-1.5025531E0,-1.3455845E0,-1.2078208E0,-1.0771625E0,-9.379811E-1,-8.035411E-1,-6.834583E-1,-5.6891435E-1,-4.095776E-1,-1.5674034E0,-2.2162358E-1,3.6257625E-1,4.299063E-3,6.1475015E-1,2.898341E-1,1.0100971E0,6.0817784E-1,9.900097E-1,1.6681381E0,1.4150416E0,2.599792E0,1.915645E0,2.7202747E0,2.4548786E0,2.8795705E0,3.2700965E0,3.8596191E0,5.670938E0,2.2491919E1,4.617826E0,6.473555E0],"split_indices":[12,12,12,12,12,12,12,12,12,12,12,12,12,12,0,12,12,12,12,12,13,0,0,0,13,13,13,12,12,17,12,0,0,0,0,0,0,0,0,0,0,0,0,0,0,0,0,0,0,0,0,0,0,0,0,0,0,0,0,0,0,0,0],"split_type":[0,0,0,0,0,0,0,0,0,0,0,0,0,0,1,0,0,0,0,0,0,1,1,1,0,0,0,0,0,0,0,0,0,0,0,0,0,0,0,0,0,0,0,0,0,0,0,0,0,0,0,0,0,0,0,0,0,0,0,0,0,0,0],"sum_hessian":[2.52108E5,1.78083E5,7.4025E4,9.6347E4,8.1736E4,5.8185E4,1.584E4,4.5376E4,5.0971E4,4.4956E4,3.678E4,3.3557E4,2.4628E4,1.3857E4,1.983E3,1.9389E4,2.5987E4,2.7917E4,2.3054E4,2.6399E4,1.8557E4,1.7078E4,1.9702E4,1.6589E4,1.6968E4,1.3409E4,1.1219E4,8.87E3,4.987E3,3.4E1,1.949E3,7.235E3,1.2154E4,1.3309E4,1.2678E4,1.5247E4,1.267E4,1.4454E4,8.6E3,1.3695E4,1.2704E4,3.9E1,1.8518E4,7.66E2,1.6312E4,1.201E3,1.8501E4,9.12E2,1.5677E4,1.6586E4,3.82E2,1.3234E4,1.75E2,1.0898E4,3.21E2,6.025E3,2.845E3,2.952E3,2.035E3,1.6E1,1.8E1,9.91E2,9.58E2],"tree_param":{"num_deleted":"0","num_feature":"38","num_nodes":"63","size_leaf_vector":"1"}},{"base_weights":[4.1365973E-4,-6.270389E0,1.4187072E1,-1.0346235E1,-1.5300503E0,9.951384E0,2.8438805E1,-1.2975427E1,-8.460952E0,-3.7828877E0,1.0453272E0,6.7619452E0,1.4094045E1,2.554731E1,5.1337814E1,-1.4581123E1,-1.2071622E1,-9.638505E0,-7.225578E0,-4.9195304E0,-2.6794765E0,-4.1723263E-1,2.2512817E0,5.143247E0,8.4380865E0,1.1789775E1,1.6213058E1,2.2344912E1,3.0881933E1,9.241726E1,4.804856E1,-1.5574871E0,-1.4076394E0,-1.2822486E0,-1.1570212E0,-1.018298E0,-8.959266E-1,-7.729289E-1,-6.582555E-1,-5.334746E-1,-4.2180705E-1,-3.2750002E-1,-1.9411822E-1,-2.8785894E-2,-4.204177E-1,1.5282784E-1,2.9226682E-1,8.4756184E-1,4.930593E-1,8.270375E-1,1.4807048E0,1.5604913E0,1.147813E0,1.5996895E0,2.4789479E0,2.012175E0,2.383861E0,2.7952316E0,3.3620346E0,1.5673022E1,8.21488E0,4.1589394E0,5.5385222E0],"categories":[0,1,2,3,4,5,6,7,8,9,10,11,12,13,14,15,16,17,18,19,21,22,23,24,25,26,27,28,29,30,31,32,33,34,35,36,37,38,39,40,41,42,43,44,45,46,47,48,49,50,51,52,53,54,55,56,57,58,59,60,61,62,63,64,65,66,67,68,69,70,72,73,74,75,76,77,78,79,80,81,82,83,84,85,86,87,88,89,90,91,92,93,94,95,96,97,98,99,100,101,102,103,104,105,106,107,108,109,110,111,112,113,114,115,116,117,118,119,120,121,122,123,124,125,126,127,128,129,130,131,132,133,134,135,136,137,138,139,140,141,142,143,144,145,146,147,148,149,150,151,152,153,154,155,156,157,158,159,160,161,162,163,164,165,166,167,168,169,170,171,172,173,174,175,176,177,178,179,180,181,182,183,184,185,186,187,188,189,190,191,192,193,194,195,196,197,198,199,200,202,203,204,205,206,207,208,209,210,211,212,213,214,215,216,217,218,219,220,221,222,223,224,225,226,227,228,229,230,231,232,233,234,235,236,237,238,239,240,241,242,243,244,245,246,247,248,249,250,251,252,253,254,255,256,257,258,259,260,261,262,263,264,265,266,267,268,269,270,271,272,273,274,275,276,277,278,279,280,281,282,283,284,285,286,287,288,289,290,291,292,293,294,295,296,297,298,299,300,301,302,303,304,305,306,307,308,309,310,311,312,313,314,315,316,317,318,319,320,321,322,323,324,325,326,327,328,329,330,331,332,333,334,335,336,337,338,339,340,341,342,343,344,345,346,347,348,349,350,351,352,353,354,355,356,357,358,359,360,361,362,363,364,365,366,367,368,369,370,372,373,374,375,376,377,378,379,380,381,382,383,384,385,386,387,388,389,390,391,392,393,394,395,396,397,398,399,400,401,402,403,404,406,407,408,409,410,411,412,413,414,415,416,417,418,419,420,421,422,423,424,425,426,427,428,429,430,431,432,433,434,435,436,437,438,439,441,442,443,444,445,446,447,448,449,450,451,452,453,454,455,456,457,458,459,460,461,462,463,464,465,466,467,468,469,470,471,472,473,474,475,476,477,478,479,480,481,482,483,484,485,486,487,488,489,490,491,492,494,495,496,497,498,499,500,501,502,503,504,505,506,507,508,509,510,511,512,513,514,515,516,517,518,519,520,521,522,523,524,525,526,527,528,529,530,531,532,533,534,535,536,537,538,539,540,541,542,543,544,545,546,547,548,549,550,551,552,553,554,555,556,557,558,559,560,561,562,563,564,565,566,567,568,569,570,571,572,573,574,575,576,577,578,579,580,581,582,583,584,585,586,587,588,589,590,591,592,593,594,595,596,597,598,599,600,601,602,603,604,605,606,607,608,609,610,611,612,613,614,615,616,617,618,619,620,621,622,623,624,625,626,627,628,629,630,631,632,633,634,635,636,637,638,639,640,641,642,644,645,646,647,648,649,650,651,652,653,654,655,656,657,658,659,660,661,662,664,665,666,667,668,669,670,671,672,673,674,675,676,677,678,680,681,682,683,684,685,686,687,688,689,690,691,692,693,694,695,696,697,698,699,700,701,702,703,704,705,706,707,708,709,710,711,712,713,714,715,716,717,718,719,720,721,722,723,724,725,726,727,728,729,730,731,732,733,734,735,736,737,738,739,741,742,743,744,745,746,747,748,749,750,751,752,753,754,755,756,757,758,759,760,761,762,763,764,765,766,768,769,770,771,772,773,774,775,776,777,778,779,780,781,782,783,784,785,786,787,788,789,790,791,793,794,795,796,797,798,799,800,801,802,803,804,805,806,807,808,809,810,811,812,813,814,815,816,817,818,819,820,821,822,823,824,825,826,827,828,2,7,13,18,21,38,41,54,60,61,68,79,90,132,133,136,151,164,177,182,191,224,226,238,246,259,271,275,276,291,300,310,311,319,345,347,353,432,443,448,499,539,544,573,578,579,583,584,611,629,650,675,694,708,722,729,747,758,760,802,809,813,817,0,1,3,4,5,6,7,8,9,10,11,12,13,14,15,16,17,19,20,21,23,24,25,26,27,29,30,31,32,33,34,35,36,37,38,39,40,41,42,43,44,45,46,47,48,50,51,52,53,54,55,56,58,59,60,61,62,63,65,66,67,68,69,70,71,72,73,75,76,77,78,79,80,81,82,83,86,87,88,89,90,91,92,93,94,95,96,98,99,100,101,102,104,105,106,107,108,109,110,111,112,113,114,115,116,117,118,119,120,121,122,123,125,126,127,128,129,130,131,132,133,134,135,136,137,138,139,141,142,143,144,145,146,147,148,149,150,151,152,153,154,155,156,157,158,159,161,163,164,165,166,167,168,169,170,171,172,173,175,176,177,178,179,180,181,182,183,184,186,187,188,189,190,191,192,193,194,195,196,197,198,199,200,201,202,203,204,205,207,208,209,210,211,212,213,214,215,216,218,220,221,222,223,224,225,226,227,228,229,230,231,232,233,234,235,236,237,238,239,240,241,242,243,244,245,247,248,249,250,251,252,253,254,255,256,257,258,259,260,261,262,263,264,266,267,268,269,271,272,274,275,276,277,278,279,281,282,283,284,285,286,287,288,289,290,292,293,294,295,296,297,298,299,301,302,303,305,306,307,308,309,310,311,312,313,314,315,316,317,318,319,320,321,322,323,324,325,326,327,328,329,330,331,333,334,335,336,337,338,339,340,341,342,343,344,345,346,347,348,349,350,351,352,353,354,355,356,357,358,359,360,361,362,363,364,365,366,367,368,369,370,371,372,373,374,375,376,377,378,379,380,381,382,383,384,385,386,387,388,389,390,391,392,393,394,395,396,397,398,399,400,401,403,404,405,406,407,408,409,410,411,412,414,415,416,417,418,419,420,421,422,423,424,425,426,427,428,429,431,432,433,434,435,436,437,438,439,440,441,442,443,444,445,446,447,448,449,450,451,452,453,456,457,458,459,460,461,462,463,464,465,466,467,468,469,470,471,472,473,474,475,476,477,478,479,480,481,483,484,485,486,487,488,490,491,492,493,494,495,496,497,498,499,500,501,502,503,504,505,506,507,508,509,511,512,513,514,515,516,517,518,519,520,521,522,523,524,525,526,527,528,529,530,531,533,534,535,536,537,538,539,541,542,543,544,545,546,547,548,549,550,551,552,553,554,555,556,558,559,560,561,562,563,564,565,566,567,568,570,571,572,573,574,575,576,577,579,580,581,582,583,584,585,586,587,588,589,590,591,592,593,594,596,597,600,601,602,603,604,606,607,608,609,610,611,612,613,614,615,616,617,618,619,620,621,622,623,624,625,626,627,628,629,630,631,633,634,635,636,637,638,639,640,641,642,644,645,646,647,648,649,650,651,652,653,654,655,656,657,658,659,660,661,662,663,664,665,666,667,668,669,671,672,673,674,675,676,677,678,679,680,681,682,683,684,685,686,687,688,689,691,692,693,694,695,696,697,698,699,700,701,702,703,704,705,707,708,709,710,711,712,713,714,715,716,717,718,719,720,721,722,723,724,725,726,727,728,730,731,732,733,734,735,737,738,739,740,741,742,743,744,745,749,750,751,752,753,754,755,756,757,758,759,760,761,762,763,764,765,766,767,768,769,770,771,772,773,774,775,776,777,778,779,780,781,782,784,785,786,787,788,789,791,792,793,794,795,796,798,799,800,801,803,805,806,807,808,809,810,811,812,813,814,815,816,818,819,820,821,822,823,824,825,826,827,828,0,1,2,3,4,5,6,7,9,10,11,12,13,14,15,16,17,18,19,20,21,22,23,24,26,27,28,30,31,32,33,34,35,36,37,38,39,41,42,43,44,45,46,47,48,49,50,51,53,54,55,56,57,58,59,60,61,62,64,66,67,68,69,70,71,72,74,75,76,77,78,79,80,81,82,83,84,85,86,87,88,89,90,91,92,93,94,95,96,97,98,100,101,103,104,105,106,108,109,110,111,112,113,114,115,116,117,118,119,120,124,125,126,127,128,129,130,131,132,133,134,135,136,137,138,139,140,141,142,143,144,145,146,147,150,151,152,153,154,155,156,157,158,159,160,163,165,166,169,170,171,172,173,174,175,176,177,178,179,180,181,182,183,184,185,186,187,188,189,190,191,192,193,194,195,196,197,198,199,200,201,202,203,204,205,206,208,209,210,211,212,213,214,215,216,217,218,219,220,221,222,223,225,228,229,230,231,232,233,234,235,236,237,238,239,240,241,242,244,245,246,247,248,249,250,251,252,253,254,255,256,257,258,259,260,261,262,263,264,265,266,267,268,269,270,271,272,273,274,275,276,278,279,280,281,282,283,284,285,286,287,288,289,290,291,292,293,294,295,296,297,298,299,302,303,304,305,306,307,308,309,311,312,313,314,315,316,317,318,319,320,321,322,323,324,325,326,327,328,329,330,331,332,333,334,335,336,337,338,339,340,341,342,343,344,345,346,347,348,349,350,351,352,353,354,355,357,358,359,360,361,362,363,364,365,366,368,369,370,371,372,373,374,375,376,378,379,380,381,382,383,384,385,386,387,388,389,390,391,392,393,394,395,396,397,399,400,401,402,403,404,406,407,408,409,411,412,413,414,415,416,417,418,419,420,421,422,423,424,425,426,427,428,429,430,431,432,433,434,436,437,438,439,440,441,442,443,444,445,446,447,448,449,450,451,452,453,454,455,456,457,458,459,460,461,462,463,464,465,466,467,468,471,472,474,475,476,477,478,479,480,481,482,483,484,485,486,487,488,490,492,493,494,496,497,498,500,501,502,503,504,505,506,507,508,510,511,512,513,514,515,516,517,518,519,520,521,523,524,525,526,527,528,529,530,531,532,533,534,535,536,537,539,540,541,542,543,544,545,546,547,548,549,550,551,552,553,554,555,557,558,559,560,561,563,564,565,566,567,568,569,570,571,572,573,574,575,576,577,578,579,580,581,582,584,585,586,587,588,589,590,591,592,593,594,595,596,597,598,599,601,602,603,604,605,606,607,608,609,610,611,613,614,615,616,617,618,619,620,621,622,623,624,625,626,627,628,629,630,631,632,633,634,635,636,637,638,639,640,641,642,644,645,646,647,648,649,650,651,652,653,654,655,656,657,658,659,660,661,662,663,664,665,666,667,668,669,670,671,672,673,674,675,676,677,678,679,680,681,682,683,684,685,686,687,688,689,690,691,692,693,694,695,697,698,699,700,701,702,703,704,705,706,707,708,709,710,711,712,713,714,715,717,718,719,720,721,722,724,725,726,727,729,730,731,732,733,734,735,736,738,739,740,741,742,743,744,745,746,747,748,749,750,751,752,753,754,755,756,757,758,759,760,761,762,763,764,765,766,768,769,770,771,772,773,774,776,777,778,779,780,781,782,783,784,785,786,787,789,790,791,792,793,794,795,796,797,799,800,801,802,803,804,805,806,807,808,809,810,811,812,813,814,816,817,818,819,820,821,822,823,824,825,826,827,828,0,1,2,3,4,5,6,7,8,9,10,11,12,13,14,15,16,17,18,19,20,21,22,23,24,25,26,27,28,29,30,31,32,33,34,35,36,37,38,39,40,41,42,43,44,45,46,47,48,49,50,51,52,53,54,55,56,57,58,59,60,61,62,63,64,65,66,67,68,69,70,71,72,73,74,75,76,77,78,79,80,81,82,83,84,85,86,87,88,89,90,91,92,93,94,95,96,97,98,99,100,101,102,103,104,105,106,107,108,109,110,111,112,113,114,115,116,117,118,119,120,121,122,123,124,125,126,127,128,129,130,131,132,133,134,135,136,137,138,139,140,141,142,143,144,145,146,147,148,149,150,151,152,153,154,155,156,157,158,159,160,161,162,163,164,165,166,167,168,169,170,171,172,173,174,175,176,177,178,179,180,181,182,183,184,185,186,187,188,189,190,191,192,193,194,195,196,197,198,199,200,202,203,204,205,206,207,208,209,210,211,212,213,214,215,216,217,218,219,220,221,222,223,224,225,226,227,228,229,230,231,232,233,234,235,236,237,238,239,240,241,242,243,244,245,246,247,248,249,250,251,252,253,254,255,256,257,258,259,260,261,262,263,264,265,266,267,268,269,270,271,272,273,274,275,276,277,278,279,280,281,282,283,284,285,286,287,288,289,290,291,292,293,294,295,296,297,298,299,300,301,302,303,304,305,306,307,308,309,310,311,312,313,314,315,316,317,318,319,320,321,322,323,324,325,326,327,328,329,330,331,332,333,334,335,336,337,338,339,340,341,342,343,344,345,346,347,348,349,350,351,352,353,354,355,356,357,358,359,360,361,362,363,364,365,366,367,368,369,370,371,372,373,374,375,376,377,378,379,380,381,382,383,384,385,386,387,388,389,390,391,392,393,394,395,396,397,398,399,400,401,402,403,404,405,406,407,408,409,410,411,412,413,414,415,416,417,418,419,420,421,422,423,424,425,426,427,428,429,430,431,432,433,434,435,436,437,438,439,441,442,443,444,445,446,447,448,449,450,451,452,453,454,455,456,457,458,459,460,461,462,463,464,465,466,467,468,469,470,471,472,473,474,475,476,477,478,479,480,481,482,483,484,485,486,487,488,489,490,491,492,493,494,495,496,497,498,499,500,501,502,503,504,505,506,507,508,509,510,511,512,513,514,515,516,517,518,519,520,521,522,523,524,525,526,527,528,529,530,531,532,533,534,535,536,537,538,539,540,541,542,543,544,545,546,547,548,549,550,551,552,553,554,555,556,557,558,559,560,561,562,563,564,565,566,567,568,569,570,571,572,573,574,575,576,577,578,579,580,581,582,583,584,585,586,587,588,589,590,591,592,593,594,595,596,597,598,599,600,601,602,603,604,605,606,607,608,609,610,611,612,613,614,615,616,617,618,619,620,621,622,623,624,625,626,627,628,629,630,631,632,633,634,635,636,637,638,639,640,641,642,643,644,645,646,647,648,649,650,651,652,653,654,655,656,657,658,659,660,661,662,663,664,665,666,667,668,669,670,671,672,673,674,675,676,677,678,680,681,682,683,684,685,686,687,688,689,690,691,692,693,694,695,696,697,698,699,700,701,702,703,704,705,706,707,708,709,710,711,712,713,714,715,716,717,718,719,720,721,722,723,724,725,726,727,728,729,730,731,732,733,734,735,736,737,738,739,741,742,743,744,745,746,747,748,749,750,751,752,753,754,755,756,757,758,759,760,761,762,763,764,765,766,767,768,769,770,771,772,773,774,775,776,777,778,779,780,781,782,783,784,785,786,787,788,789,790,791,793,794,795,796,797,798,799,800,801,802,803,804,805,806,807,808,809,810,811,812,813,814,815,816,817,818,819,820,821,822,823,824,825,826,827,828],"categories_nodes":[14,21,23,25,29],"categories_segments":[0,816,879,1645,2411],"categories_sizes":[816,63,766,766,824],"default_left":[0,0,0,0,0,0,0,0,0,0,0,0,0,0,0,0,0,0,0,0,0,1,0,0,0,0,0,0,0,0,0,0,0,0,0,0,0,0,0,0,0,0,0,0,0,0,0,0,0,0,0,0,0,0,0,0,0,0,0,0,0,0,0],"id":2,"left_children":[1,3,5,7,9,11,13,15,17,19,21,23,25,27,29,31,33,35,37,39,41,43,45,47,49,51,53,55,57,59,61,-1,-1,-1,-1,-1,-1,-1,-1,-1,-1,-1,-1,-1,-1,-1,-1,-1,-1,-1,-1,-1,-1,-1,-1,-1,-1,-1,-1,-1,-1,-1,-1],"loss_changes":[2.2428142E7,3.377875E6,4.664733E6,4.65847E5,4.6896044E5,7.87055E5,1.17098E6,5.6792E4,7.957575E4,5.405975E4,6.652192E4,9.128725E4,1.26341E5,2.67897E5,2.636385E5,6.8695E3,9.31025E3,1.02745E4,8.604625E3,6.162625E3,9.613219E3,8.349664E3,1.0029539E4,1.2095125E4,1.75405E4,1.45855E4,2.46255E4,3.2157E4,4.6353E4,8.35425E4,8.48445E4,0E0,0E0,0E0,0E0,0E0,0E0,0E0,0E0,0E0,0E0,0E0,0E0,0E0,0E0,0E0,0E0,0E0,0E0,0E0,0E0,0E0,0E0,0E0,0E0,0E0,0E0,0E0,0E0,0E0,0E0,0E0,0E0],"parents":[2147483647,0,0,1,1,2,2,3,3,4,4,5,5,6,6,7,7,8,8,9,9,10,10,11,11,12,12,13,13,14,14,15,15,16,16,17,17,18,18,19,19,20,20,21,21,22,22,23,23,24,24,25,25,26,26,27,27,28,28,29,29,30,30],"right_children":[2,4,6,8,10,12,14,16,18,20,22,24,26,28,30,32,34,36,38,40,42,44,46,48,50,52,54,56,58,60,62,-1,-1,-1,-1,-1,-1,-1,-1,-1,-1,-1,-1,-1,-1,-1,-1,-1,-1,-1,-1,-1,-1,-1,-1,-1,-1,-1,-1,-1,-1,-1,-1],"split_conditions":[3.2509553E-1,-4.992815E-1,1.6303592E0,-9.1147E-1,-1.0999234E-1,8.746802E-1,3.256214E0,-1.129014E0,-7.053758E-1,-3.160866E-1,7.320256E-2,5.769885E-1,1.172372E0,2.248642E0,NaN,-1.2549604E0,-1.0259669E0,-7.969732E-1,-5.9087896E-1,-3.847847E-1,-2.015898E-1,NaN,1.8769938E-1,NaN,2.0679717E0,NaN,2.71026E0,1.8250037E0,2.5692332E0,NaN,3.8515973E0,-1.5574871E0,-1.4076394E0,-1.2822486E0,-1.1570212E0,-1.018298E0,-8.959266E-1,-7.729289E-1,-6.582555E-1,-5.334746E-1,-4.2180705E-1,-3.2750002E-1,-1.9411822E-1,-2.8785894E-2,-4.204177E-1,1.5282784E-1,2.9226682E-1,8.4756184E-1,4.930593E-1,8.270375E-1,1.4807048E0,1.5604913E0,1.147813E0,1.5996895E0,2.4789479E0,2.012175E0,2.383861E0,2.7952316E0,3.3620346E0,1.5673022E1,8.21488E0,4.1589394E0,5.5385222E0],"split_indices":[12,12,12,12,12,12,12,12,12,12,12,12,12,12,0,12,12,12,12,12,12,0,12,0,13,0,13,12,12,0,12,0,0,0,0,0,0,0,0,0,0,0,0,0,0,0,0,0,0,0,0,0,0,0,0,0,0,0,0,0,0,0,0],"split_type":[0,0,0,0,0,0,0,0,0,0,0,0,0,0,1,0,0,0,0,0,0,1,0,1,0,1,0,0,0,1,0,0,0,0,0,0,0,0,0,0,0,0,0,0,0,0,0,0,0,0,0,0,0,0,0,0,0,0,0,0,0,0,0],"sum_hessian":[2.52108E5,1.7483E5,7.7278E4,9.4003E4,8.0827E4,5.9574E4,1.7704E4,3.9254E4,5.4749E4,4.3113E4,3.7714E4,3.3661E4,2.5913E4,1.5721E4,1.983E3,1.4132E4,2.5122E4,2.8027E4,2.6722E4,2.1235E4,2.1878E4,1.7044E4,2.067E4,1.7126E4,1.6535E4,1.2417E4,1.3496E4,9.827E3,5.894E3,1.45E2,1.838E3,4.75E3,9.382E3,1.0049E4,1.5073E4,1.5549E4,1.2478E4,1.4978E4,1.1744E4,1.3335E4,7.9E3,1.2108E4,9.77E3,1.6482E4,5.62E2,9.954E3,1.0716E4,1.025E3,1.6101E4,1.6113E4,4.22E2,9.34E2,1.1483E4,1.3167E4,3.29E2,3.955E3,5.872E3,2.853E3,3.041E3,1.8E1,1.27E2,9.81E2,8.57E2],"tree_param":{"num_deleted":"0","num_feature":"38","num_nodes":"63","size_leaf_vector":"1"}},{"base_weights":[5.4793165E-4,-5.30946E0,1.3580409E1,-8.99153E0,-6.006593E-1,1.0169314E1,2.774973E1,-1.12409315E1,-6.9285913E0,-2.5210886E0,2.0588224E0,7.4095225E0,1.4665305E1,2.562398E1,5.5182102E1,-1.25932255E1,-1.0109376E1,-8.078226E0,-5.931439E0,-3.531126E0,-1.2605579E0,9.9361575E-1,3.067747E0,5.8102207E0,9.2311735E0,1.2945434E1,1.7018637E1,2.2668718E1,3.200387E1,2.389469E2,5.3815975E1,-1.3486887E0,-1.1844019E0,-1.0638132E0,-9.5189E-1,-8.579077E-1,-7.604407E-1,-6.502587E-1,-5.339699E-1,-4.3321395E-1,-3.1451115E-1,-1.247804E0,-1.227644E-1,4.9257728E-1,8.391573E-2,6.3994235E-1,2.8633913E-1,5.697268E-1,1.3174638E0,1.2591754E0,8.982386E-1,1.2856529E0,3.188122E0,2.0374901E0,1.6563351E0,2.0654309E0,2.431814E0,2.8617394E0,3.538623E0,-2.743391E0,4.4559097E1,7.0904465E0,4.548697E0],"categories":[0,1,2,3,4,5,6,7,8,9,10,11,12,13,14,15,16,17,18,19,20,21,22,23,24,25,26,27,28,29,30,31,32,33,34,35,36,37,38,39,40,41,42,43,44,45,46,47,48,49,50,51,52,53,54,55,56,57,58,59,60,61,62,63,64,65,66,67,68,69,70,71,72,73,74,75,76,77,78,79,80,81,82,83,84,85,86,87,88,89,90,91,92,93,94,95,96,97,98,99,100,101,102,103,104,105,106,107,108,109,110,111,112,113,114,115,116,117,118,119,120,121,122,123,124,125,126,127,128,129,130,131,132,133,134,135,136,137,138,139,140,141,142,143,144,145,146,147,148,149,150,151,152,153,154,155,156,157,158,159,160,161,162,163,164,165,166,167,168,169,170,171,172,173,174,175,176,177,178,179,180,181,182,183,184,185,186,187,188,189,190,191,192,193,194,195,196,197,198,199,200,201,202,203,204,205,206,207,208,209,210,211,212,213,214,215,216,217,218,219,220,221,222,223,224,225,226,227,228,229,230,231,232,233,234,235,236,237,238,239,240,241,242,243,244,245,246,247,248,249,250,251,252,253,254,255,256,257,258,259,260,261,262,263,264,265,266,267,268,269,270,271,272,273,274,275,276,277,278,279,280,281,282,283,284,285,286,287,288,289,290,291,292,293,294,295,296,297,298,299,300,301,302,303,304,305,306,307,308,309,310,311,312,313,314,315,316,317,318,319,320,321,322,323,324,325,326,327,328,329,330,331,332,333,334,335,336,337,338,339,340,341,342,343,344,345,346,347,348,349,350,351,352,353,354,355,356,357,358,359,360,361,362,363,364,365,366,367,368,369,370,371,372,373,374,375,376,377,378,379,380,381,382,383,384,385,386,387,388,389,390,391,392,393,394,395,396,397,398,399,400,401,402,403,404,405,406,407,408,409,410,411,412,413,414,415,416,417,418,419,420,421,422,423,424,425,426,427,428,429,430,431,432,433,434,435,436,437,438,439,441,442,443,444,445,446,447,448,449,450,451,452,453,454,455,456,457,458,459,460,461,462,463,464,465,466,467,468,469,470,471,472,473,474,475,476,477,478,479,480,481,482,483,484,485,486,487,488,489,490,491,492,493,494,495,496,497,498,499,500,501,502,503,504,505,506,507,508,509,510,511,512,513,514,515,516,517,518,519,520,521,522,523,524,525,526,527,528,529,530,531,532,533,534,535,536,537,538,539,540,541,542,543,544,545,546,547,548,549,550,551,552,553,554,555,556,557,558,559,560,561,562,563,564,565,566,567,568,569,570,571,572,573,574,575,576,577,578,579,580,581,582,583,584,585,586,587,588,589,590,591,592,593,594,595,596,597,598,599,600,601,602,603,604,605,606,607,608,609,610,611,612,613,614,615,616,617,618,619,620,621,622,623,624,625,626,627,628,629,630,631,632,633,634,635,636,637,638,639,640,641,642,643,644,645,646,647,648,649,650,651,652,653,654,655,656,657,658,659,660,661,662,663,664,665,666,667,668,669,670,671,672,673,674,675,676,677,678,680,681,682,683,684,685,686,687,688,689,690,691,692,693,694,695,696,697,698,699,700,701,702,703,704,705,706,707,708,709,710,711,712,713,714,715,716,717,718,719,720,721,722,723,724,725,726,727,728,729,730,731,732,733,734,735,736,737,738,739,741,742,743,744,745,746,747,748,749,750,751,752,753,754,755,756,757,758,759,760,761,762,763,764,765,766,767,768,769,770,771,772,773,774,775,776,777,778,779,780,781,782,783,784,785,786,787,788,789,790,791,792,793,794,795,796,797,798,799,800,801,802,803,804,805,806,807,808,809,810,811,812,813,814,815,816,817,818,819,820,821,822,823,824,825,826,827,828,0,1,2,3,4,5,6,7,8,9,10,11,12,13,14,15,16,17,18,19,20,21,23,24,26,27,28,29,30,31,32,33,34,35,36,37,38,39,40,41,42,43,44,46,47,48,49,50,51,52,53,54,55,57,58,59,60,61,62,64,65,66,67,68,69,70,71,72,74,75,76,77,79,80,81,83,85,87,88,89,91,92,93,94,95,96,97,98,99,100,101,102,103,104,105,106,107,108,109,110,111,112,113,114,115,116,118,119,120,121,122,123,124,125,126,127,128,129,130,131,132,133,135,136,137,138,139,140,141,142,143,144,145,146,147,148,149,150,151,152,153,154,155,156,158,159,161,162,163,164,165,166,167,168,169,170,171,172,173,174,175,176,177,178,179,180,181,182,183,184,185,186,188,189,190,191,192,193,194,195,196,197,198,199,200,201,202,203,204,205,206,207,208,209,210,211,212,213,214,215,216,217,218,219,220,222,223,224,225,226,227,228,229,230,231,232,233,234,235,236,237,238,239,240,242,243,244,245,246,247,248,249,250,251,252,253,254,255,256,257,258,259,260,261,262,263,264,265,266,267,269,270,271,272,275,276,277,278,279,280,281,282,283,284,285,286,287,288,289,290,291,292,293,294,295,296,297,298,299,300,301,302,303,304,306,307,308,309,312,313,314,315,316,317,318,319,320,321,322,323,324,326,327,328,329,330,331,332,333,334,335,336,337,338,339,340,341,342,343,344,345,346,347,348,349,350,351,352,353,354,355,357,358,359,360,361,362,363,364,365,366,368,369,370,373,374,375,376,377,378,379,380,381,382,383,384,385,386,387,388,389,390,391,392,393,394,395,396,397,399,400,401,403,404,406,407,408,409,410,411,412,413,414,415,416,417,418,419,420,421,422,423,424,425,426,427,428,429,430,431,432,433,434,435,436,437,439,440,441,442,445,446,447,449,450,451,452,453,454,455,456,458,459,460,461,462,463,464,465,466,467,468,469,470,471,472,473,474,475,476,477,478,479,480,481,482,483,484,485,486,487,488,489,490,491,492,493,494,496,497,498,499,500,501,502,503,504,505,506,507,509,512,514,515,516,517,518,519,520,521,524,525,526,527,528,529,530,531,532,533,534,535,536,537,538,539,540,541,542,543,544,545,546,547,548,549,550,552,553,554,555,557,558,559,560,561,562,563,564,565,566,568,569,570,571,572,573,574,575,576,577,578,579,580,581,582,583,584,585,586,587,588,589,590,591,592,593,594,595,596,597,598,599,600,601,602,603,604,605,606,607,609,610,611,612,613,614,615,616,617,618,619,620,621,622,623,624,625,626,627,628,629,630,631,632,633,634,635,636,637,638,639,641,642,643,644,645,647,648,649,650,651,652,653,654,655,656,657,658,659,660,661,662,663,664,665,667,668,669,670,671,672,673,674,675,676,677,678,679,680,681,682,683,684,685,686,687,688,689,690,691,692,693,694,695,696,697,698,699,700,701,702,703,704,705,706,707,709,710,711,712,713,714,715,716,717,718,719,722,723,724,725,726,727,728,729,730,731,732,733,734,736,737,738,739,740,741,742,743,745,746,747,749,750,751,752,753,754,755,756,757,758,759,760,761,762,763,764,765,767,768,769,770,771,773,774,775,776,777,778,779,780,781,782,783,784,785,786,787,788,789,790,791,792,793,794,795,796,797,799,800,801,802,803,804,806,807,808,809,810,812,813,814,815,816,817,818,819,820,821,822,823,824,825,827,828,0,1,2,5,6,7,8,9,10,11,12,14,15,16,17,18,19,20,21,22,23,24,25,26,27,28,29,30,31,32,34,35,36,39,40,41,42,43,44,45,46,47,48,50,51,52,53,54,55,56,58,59,60,62,63,65,66,67,68,69,70,71,72,73,74,75,76,78,80,81,82,83,87,88,89,90,91,92,93,94,95,96,98,99,100,101,102,104,106,108,109,110,111,112,113,114,116,117,118,119,120,121,122,123,124,126,127,128,130,131,132,134,135,136,137,138,139,140,141,143,144,145,146,147,149,150,151,152,153,154,155,156,157,158,159,160,161,162,163,164,165,166,167,168,169,170,171,172,173,174,175,176,177,179,180,181,182,183,184,185,186,187,188,189,191,192,193,194,195,196,197,198,199,200,201,202,203,204,205,206,207,208,209,210,211,212,213,214,215,216,217,218,220,221,222,223,224,225,226,227,228,229,230,232,233,234,235,236,237,238,239,240,241,243,244,245,246,247,248,249,250,251,252,253,254,255,256,257,258,260,261,262,263,264,265,266,267,268,269,272,274,275,276,277,278,279,280,281,282,283,284,285,286,287,288,289,290,292,293,294,295,296,297,298,299,300,301,302,303,304,305,306,307,308,309,310,311,312,313,314,315,316,317,318,319,320,321,322,323,324,326,327,328,329,330,331,332,334,335,336,337,338,339,340,341,342,343,344,345,346,347,348,349,350,351,352,353,354,355,356,357,358,359,360,361,362,363,364,365,366,367,368,369,370,372,373,374,375,376,377,378,379,380,381,382,383,384,385,386,387,388,389,390,391,392,393,394,395,396,397,398,399,400,401,402,403,404,405,407,408,409,410,411,412,413,414,415,417,418,419,420,421,422,423,424,425,426,427,428,429,430,432,433,434,436,437,438,439,441,442,443,444,445,446,447,448,449,450,451,452,453,455,456,457,458,459,460,461,462,463,464,465,466,467,468,469,470,471,472,473,474,475,476,477,478,479,480,481,483,484,485,486,487,488,489,490,491,492,493,494,495,496,497,498,500,501,502,503,504,505,506,507,508,509,510,511,512,513,514,516,517,518,519,520,521,522,523,524,525,526,527,528,529,530,531,532,533,534,535,536,537,538,539,541,542,543,544,545,546,547,548,549,550,551,552,553,554,555,556,557,558,559,560,561,562,563,564,565,566,567,569,570,571,572,573,574,575,576,577,579,580,581,582,583,584,585,587,588,589,590,591,592,593,594,595,596,597,598,599,600,601,602,603,604,605,606,607,608,609,610,611,612,613,614,615,616,617,618,619,620,621,623,624,625,627,628,629,630,631,632,633,634,635,636,637,638,639,640,641,642,643,644,645,646,647,648,649,650,651,652,653,655,656,657,658,659,660,661,662,663,664,665,666,667,668,669,670,671,672,673,674,675,676,677,679,680,681,682,683,685,686,687,688,689,690,691,692,693,694,695,696,697,698,699,700,701,702,703,704,705,707,708,709,710,711,712,713,714,715,716,718,719,720,721,722,723,724,725,726,727,728,729,730,731,732,734,735,736,737,738,739,740,741,742,743,744,745,746,747,748,749,750,751,752,753,754,755,756,758,759,760,761,762,763,764,765,766,767,768,769,770,771,772,773,775,776,777,779,780,781,782,783,784,786,787,788,789,790,791,792,793,794,795,796,797,798,799,800,801,802,803,804,805,806,807,808,809,810,811,812,813,814,815,816,817,818,819,820,821,822,823,824,825,826,827,828,0,1,2,3,4,5,6,7,8,9,10,11,12,13,14,15,16,17,18,19,20,21,22,23,24,25,26,27,28,32,33,34,35,36,37,38,39,41,42,43,44,45,46,47,48,49,50,51,52,53,54,55,56,57,58,59,60,61,62,64,65,66,67,68,70,71,72,73,74,75,76,77,78,79,80,81,82,83,84,85,86,87,88,89,90,91,92,93,94,95,96,97,98,99,100,101,102,103,105,106,107,109,111,112,113,114,115,116,117,118,119,120,121,123,124,125,126,127,128,129,130,131,132,133,134,135,136,137,138,139,140,141,142,143,144,145,146,147,150,151,153,154,155,156,157,158,159,160,161,163,164,165,166,167,168,169,170,172,173,174,175,176,177,178,179,180,181,183,184,185,186,187,188,189,190,191,192,193,194,195,196,197,198,199,200,201,202,203,204,205,206,207,208,209,211,212,213,214,215,216,217,218,219,220,221,222,223,225,228,229,230,231,232,233,234,235,236,237,238,239,240,241,242,243,244,245,246,247,248,249,250,251,252,253,254,255,256,257,258,259,260,261,262,263,264,265,267,268,269,270,271,272,273,274,275,276,278,279,280,281,283,284,285,286,287,288,289,290,291,292,293,294,295,296,297,298,299,300,301,302,303,304,305,306,307,308,309,310,311,312,313,314,315,316,317,318,319,320,321,322,323,324,325,326,327,328,329,330,331,332,333,334,335,336,337,338,339,340,341,342,344,345,346,347,348,349,350,351,352,353,354,355,357,358,359,360,361,362,363,364,365,366,368,369,370,371,372,373,374,375,376,377,378,379,380,381,382,384,385,386,387,388,389,390,391,392,393,394,395,396,397,398,399,400,401,403,404,405,406,407,408,409,410,411,412,413,414,415,416,417,418,419,420,421,422,423,424,425,426,427,428,429,430,431,432,433,434,435,436,437,438,439,440,441,442,443,444,445,446,447,448,449,450,451,452,453,454,455,456,457,458,459,461,462,463,464,465,466,467,468,469,471,472,473,474,475,476,477,478,479,480,481,482,483,484,485,486,487,488,489,490,491,492,493,494,495,496,498,499,500,501,502,503,504,505,506,507,508,511,512,513,514,515,516,517,518,519,520,521,522,523,524,525,526,527,528,529,530,531,532,533,534,535,536,537,538,539,540,541,542,543,544,545,546,547,548,549,550,551,552,554,555,557,558,559,560,561,562,563,564,565,567,568,569,570,571,572,573,574,575,576,577,578,580,582,584,585,586,587,588,589,590,591,593,594,595,596,597,598,599,601,602,603,604,605,608,609,611,613,614,615,616,617,618,619,620,621,622,623,624,625,626,627,628,629,630,631,632,633,634,635,636,637,638,639,640,641,642,644,645,647,648,649,650,651,652,653,655,656,657,660,661,662,664,665,666,667,668,669,670,671,672,673,674,675,676,677,678,679,680,681,682,683,684,685,686,688,689,690,691,692,693,694,695,696,697,698,699,700,701,702,703,704,705,707,708,709,710,711,712,713,714,715,716,718,719,720,722,723,724,725,726,727,728,729,731,732,733,734,735,736,737,738,739,740,741,742,743,744,745,746,747,748,749,750,751,752,753,754,756,757,758,759,760,761,763,764,765,766,767,768,769,770,771,773,774,775,776,777,778,779,781,782,783,784,785,786,787,788,789,790,791,792,794,795,796,797,798,799,800,801,802,803,804,805,806,807,808,809,810,811,812,813,814,816,818,819,820,821,822,823,824,825,826,827,828,1,2,3,4,5,6,7,8,9,10,11,12,13,14,15,16,17,19,20,21,22,23,24,25,26,27,28,29,30,31,32,33,34,35,36,37,38,39,41,42,43,44,45,46,47,48,49,50,51,52,53,54,55,56,57,58,59,61,62,64,66,67,68,69,71,72,73,74,75,76,77,79,80,81,82,83,85,86,87,88,89,90,91,92,93,94,95,96,97,98,99,100,101,102,103,104,105,106,107,108,110,111,112,113,114,116,117,118,119,120,121,122,123,125,126,127,128,129,130,131,132,134,135,136,137,138,139,140,141,142,143,144,145,146,147,148,149,150,151,152,153,154,155,156,157,158,159,160,162,163,164,165,166,167,169,170,171,172,174,175,176,177,178,179,180,181,182,183,184,185,186,188,189,190,191,192,193,194,195,196,197,198,200,201,202,203,204,205,206,208,209,211,212,213,214,215,216,217,218,219,220,221,222,223,224,225,226,227,228,229,230,231,232,233,235,236,237,238,239,240,242,244,245,246,247,248,249,250,251,252,253,254,255,256,257,258,260,261,262,263,264,265,266,267,268,269,270,271,272,274,275,276,277,278,279,280,281,282,283,284,286,287,288,289,290,291,292,293,294,296,297,298,299,300,301,302,303,304,306,308,309,310,311,312,313,314,315,316,317,318,319,320,321,322,323,324,325,326,327,328,329,330,331,333,334,335,337,338,339,340,341,342,343,344,345,346,347,348,349,350,351,352,353,354,355,356,357,358,359,360,361,362,363,364,365,366,367,369,370,371,372,373,374,375,376,377,379,380,381,382,383,384,385,386,387,388,389,390,391,392,393,394,395,396,397,398,399,400,401,402,403,404,405,406,407,408,409,410,411,412,413,414,415,416,417,418,419,420,421,422,423,424,425,426,427,428,429,430,431,432,433,435,436,437,438,439,440,441,442,443,444,445,446,448,450,451,452,453,454,455,456,458,459,460,461,462,463,464,465,466,467,468,470,471,472,473,474,475,476,477,478,479,480,481,483,484,485,486,487,488,490,491,492,493,494,495,496,497,498,499,500,501,502,503,504,506,507,508,509,511,512,513,514,515,516,517,518,519,520,521,522,523,524,525,526,528,529,530,531,532,533,534,535,536,537,538,539,540,541,542,543,544,545,546,547,548,549,550,551,552,553,554,555,556,557,558,559,560,562,563,564,565,566,567,568,569,570,571,572,573,574,575,577,579,580,581,582,583,584,585,586,587,588,589,590,591,592,593,594,595,596,597,598,599,600,601,602,603,604,605,606,607,608,609,610,611,612,613,614,615,616,617,618,619,620,621,623,624,625,626,627,628,629,630,631,632,633,634,635,636,637,638,639,640,641,642,643,644,645,646,647,648,650,651,652,653,654,655,656,657,658,659,660,661,662,663,664,666,667,668,669,670,671,672,673,674,675,676,677,678,679,680,681,682,683,684,685,686,687,688,689,690,691,692,693,694,695,696,697,698,699,700,701,702,703,704,706,707,708,709,710,711,712,713,714,715,716,717,719,720,721,722,723,725,726,727,728,730,732,733,734,735,736,737,738,739,740,741,742,743,744,745,746,747,748,749,750,751,752,753,756,757,758,759,760,761,762,763,764,765,766,767,768,769,770,771,772,773,774,775,776,777,779,780,781,782,783,784,785,786,787,788,789,790,791,793,794,795,796,797,798,799,800,801,802,803,804,805,806,807,808,809,810,811,812,813,814,815,816,818,819,820,821,822,823,824,825,826,827,828,0,1,2,3,4,5,6,7,8,9,10,11,12,13,14,15,16,17,18,19,22,23,24,25,26,27,28,29,30,32,33,34,35,36,37,38,39,40,41,42,43,44,45,46,47,48,49,50,51,52,53,54,55,56,57,58,59,60,61,62,63,64,65,66,67,68,69,70,72,73,74,75,76,77,78,79,80,81,82,83,84,85,86,87,88,89,90,91,92,93,94,95,96,97,98,99,100,101,102,103,104,105,106,107,108,109,110,111,112,113,114,115,116,117,118,119,120,121,122,123,124,125,126,127,128,129,130,131,132,133,134,135,136,137,138,139,140,141,142,143,144,145,146,147,148,149,150,151,152,153,154,155,156,157,158,159,160,161,163,164,165,166,167,168,169,170,171,172,173,174,175,176,177,178,179,180,181,182,183,184,185,186,187,188,189,190,191,192,193,194,195,196,197,198,199,200,202,203,204,205,207,208,209,210,211,212,213,214,215,216,217,218,219,220,221,222,223,224,225,226,227,228,229,230,231,232,233,234,235,236,237,238,239,240,241,242,243,244,245,246,247,248,249,251,253,254,255,256,257,258,259,260,261,262,263,264,265,266,267,268,269,270,271,272,273,274,275,276,277,278,279,280,281,282,283,284,285,286,287,288,289,290,291,292,293,294,295,296,297,298,299,301,302,303,304,305,306,307,308,309,310,311,312,313,314,315,316,317,318,319,320,321,322,323,324,325,326,327,328,329,330,331,332,333,334,335,336,337,338,339,340,341,342,343,344,345,346,347,348,349,350,351,352,353,354,355,356,357,358,359,360,361,362,363,364,365,366,367,369,370,372,373,374,375,376,377,378,379,380,381,382,383,384,385,386,387,388,389,390,391,392,393,394,395,396,397,398,399,400,401,402,403,404,406,407,408,409,410,411,412,413,414,415,416,417,418,419,420,421,422,423,424,425,426,427,428,429,430,431,432,433,434,435,436,437,439,440,441,442,443,444,445,446,448,449,450,451,452,454,455,456,457,458,459,460,462,463,464,465,466,467,468,469,470,471,472,473,474,475,476,477,478,479,480,481,482,483,484,485,486,487,488,489,490,491,492,494,495,496,497,498,499,500,501,502,503,504,505,506,507,508,509,511,512,513,514,515,516,517,518,519,520,521,522,523,524,525,526,527,528,529,530,531,532,533,534,535,536,537,538,539,540,541,542,543,544,545,546,547,548,549,550,551,552,553,554,555,556,557,558,559,560,561,562,563,564,565,566,567,568,569,570,571,572,573,574,575,576,577,578,579,580,581,582,583,584,585,586,587,588,589,590,591,592,593,594,595,596,597,598,599,600,601,602,603,604,605,606,607,608,609,610,611,612,613,614,615,616,617,618,619,620,621,622,623,624,625,626,627,628,629,630,631,632,633,634,635,636,637,638,639,640,641,642,644,645,646,647,648,649,650,651,652,653,654,655,656,657,658,659,660,661,662,664,665,666,667,668,669,670,671,672,673,674,675,676,677,678,679,680,681,682,683,684,685,686,687,688,689,690,691,692,693,694,695,696,697,698,699,700,701,702,703,704,705,707,708,709,710,711,712,713,714,715,716,717,718,720,722,723,724,725,726,727,728,729,730,731,732,733,734,735,736,737,738,739,740,741,742,743,744,745,746,747,748,749,750,751,752,753,754,756,757,758,759,760,761,762,763,764,765,766,768,769,770,771,772,773,774,775,776,777,778,779,780,781,782,783,784,785,786,787,788,789,790,791,793,794,795,796,797,798,799,800,801,802,803,804,805,806,807,808,809,810,811,812,813,814,815,816,817,818,819,820,821,822,823,824,825,826,827,828],"categories_nodes":[14,21,22,24,26,30],"categories_segments":[0,826,1592,2358,3124,3894],"categories_sizes":[826,766,766,766,770,802],"default_left":[0,0,0,0,0,0,0,0,0,0,0,0,0,0,0,0,0,0,0,0,0,0,0,0,0,0,0,0,0,0,0,0,0,0,0,0,0,0,0,0,0,0,0,0,0,0,0,0,0,0,0,0,0,0,0,0,0,0,0,0,0,0,0],"id":3,"left_children":[1,3,5,7,9,11,13,15,17,19,21,23,25,27,29,31,33,35,37,39,41,43,45,47,49,51,53,55,57,59,61,-1,-1,-1,-1,-1,-1,-1,-1,-1,-1,-1,-1,-1,-1,-1,-1,-1,-1,-1,-1,-1,-1,-1,-1,-1,-1,-1,-1,-1,-1,-1,-1],"loss_changes":[1.8179442E7,3.1423765E6,3.425022E6,4.718905E5,4.0620778E5,7.086355E5,8.00409E5,7.43225E4,6.07735E4,5.879622E4,3.5838625E4,1.03068E5,8.771E4,2.399105E5,2.35174E5,1.4678E4,8.17075E3,5.782375E3,9.569125E3,7.9140312E3,7.5705215E3,9.849595E3,1.16425625E4,1.56058125E4,1.37205E4,2.0728E4,1.367475E4,2.8491E4,4.523975E4,3.9754644E5,1.36543E5,0E0,0E0,0E0,0E0,0E0,0E0,0E0,0E0,0E0,0E0,0E0,0E0,0E0,0E0,0E0,0E0,0E0,0E0,0E0,0E0,0E0,0E0,0E0,0E0,0E0,0E0,0E0,0E0,0E0,0E0,0E0,0E0],"parents":[2147483647,0,0,1,1,2,2,3,3,4,4,5,5,6,6,7,7,8,8,9,9,10,10,11,11,12,12,13,13,14,14,15,15,16,16,17,17,18,18,19,19,20,20,21,21,22,22,23,23,24,24,25,25,26,26,27,27,28,28,29,29,30,30],"right_children":[2,4,6,8,10,12,14,16,18,20,22,24,26,28,30,32,34,36,38,40,42,44,46,48,50,52,54,56,58,60,62,-1,-1,-1,-1,-1,-1,-1,-1,-1,-1,-1,-1,-1,-1,-1,-1,-1,-1,-1,-1,-1,-1,-1,-1,-1,-1,-1,-1,-1,-1,-1,-1],"split_conditions":[4.16693E-1,-4.4203308E-1,1.8250037E0,-8.4277195E-1,4.5044734E-3,1.0578752E0,3.8515973E0,-1.0488662E0,-6.59577E-1,-2.015898E-1,1.8769938E-1,7.1438473E-1,1.4242649E0,2.5692332E0,NaN,-1.163363E0,-9.343694E-1,-7.511745E-1,-5.4508024E-1,-3.6188534E-1,-1.144687E0,NaN,NaN,2.1502976E0,NaN,3.5386338E0,NaN,2.0883465E0,2.935623E0,1.6756597E0,NaN,-1.3486887E0,-1.1844019E0,-1.0638132E0,-9.5189E-1,-8.579077E-1,-7.604407E-1,-6.502587E-1,-5.339699E-1,-4.3321395E-1,-3.1451115E-1,-1.247804E0,-1.227644E-1,4.9257728E-1,8.391573E-2,6.3994235E-1,2.8633913E-1,5.697268E-1,1.3174638E0,1.2591754E0,8.982386E-1,1.2856529E0,3.188122E0,2.0374901E0,1.6563351E0,2.0654309E0,2.431814E0,2.8617394E0,3.538623E0,-2.743391E0,4.4559097E1,7.0904465E0,4.548697E0],"split_indices":[12,12,12,12,12,12,12,12,12,12,12,12,12,12,0,12,12,12,12,12,13,0,0,13,0,13,0,12,12,17,0,0,0,0,0,0,0,0,0,0,0,0,0,0,0,0,0,0,0,0,0,0,0,0,0,0,0,0,0,0,0,0,0],"split_type":[0,0,0,0,0,0,0,0,0,0,0,0,0,0,1,0,0,0,0,0,0,1,1,0,1,0,1,0,0,0,1,0,0,0,0,0,0,0,0,0,0,0,0,0,0,0,0,0,0,0,0,0,0,0,0,0,0,0,0,0,0,0,0],"sum_hessian":[2.52108E5,1.8124E5,7.0868E4,1.01708E5,7.9532E4,5.7119E4,1.3749E4,4.8653E4,5.3055E4,4.6183E4,3.3349E4,3.5395E4,2.1724E4,1.2762E4,9.87E2,2.216E4,2.6493E4,2.464E4,2.8415E4,2.5638E4,2.0545E4,1.6223E4,1.7126E4,1.885E4,1.6545E4,1.2555E4,9.169E3,8.725E3,4.037E3,6E0,9.81E2,1.0098E4,1.2062E4,1.3968E4,1.2525E4,1.197E4,1.267E4,1.4454E4,1.3961E4,8.334E3,1.7304E4,5.9E1,2.0486E4,6.12E2,1.5611E4,9.88E2,1.6138E4,1.8567E4,2.83E2,1.137E3,1.5408E4,1.2498E4,5.7E1,1.09E3,8.079E3,3.934E3,4.791E3,2.022E3,2.015E3,3E0,3E0,3.19E2,6.62E2],"tree_param":{"num_deleted":"0","num_feature":"38","num_nodes":"63","size_leaf_vector":"1"}},{"base_weights":[7.6518895E-4,-4.6233664E0,1.2646058E1,-8.09245E0,-3.6692852E-1,9.491184E0,2.4979437E1,-1.0116932E1,-6.2357845E0,-2.16554E0,2.1696405E0,6.976119E0,1.3199151E1,2.3062435E1,4.9717995E1,-1.1489798E1,-9.206972E0,-7.1563644E0,-5.226929E0,-3.072089E0,-8.9060676E-1,1.3370006E0,3.248465E0,5.637713E0,8.435672E0,1.1651247E1,1.5317175E1,2.040236E1,2.8805067E1,1.720504E2,4.7910435E1,-1.2400322E0,-1.0946808E0,-9.819504E-1,-8.69544E-1,-7.600741E-1,-6.585919E-1,-5.633253E-1,-4.6780816E-1,-3.6655328E-1,-2.5299442E-1,2.246032E-1,-1.0164731E-1,4.8098356E-1,1.2093361E-1,6.946643E-1,2.9981396E-1,5.445589E-1,1.0590905E0,1.2097653E0,8.187311E-1,1.1570979E0,2.8748064E0,1.8207983E0,1.4876293E0,1.8890702E0,2.2243173E0,2.575707E0,3.1849363E0,-2.6411417E0,2.8524158E1,6.3793535E0,4.1290183E0],"categories":[0,1,2,3,4,5,6,7,8,9,10,11,12,13,14,15,16,17,18,19,20,21,22,23,24,25,26,27,28,29,30,31,32,33,34,35,36,37,38,39,40,41,42,43,44,45,46,47,48,49,50,51,52,53,54,55,56,57,58,59,60,61,62,63,64,65,66,67,68,69,70,71,72,73,74,75,76,77,78,79,80,81,82,83,84,85,86,87,88,89,90,91,92,93,94,95,96,97,98,99,100,101,102,103,104,105,106,107,108,109,110,111,112,113,114,115,116,117,118,119,120,121,122,123,124,125,126,127,128,129,130,131,132,133,134,135,136,137,138,139,140,141,142,143,144,145,146,147,148,149,150,151,152,153,154,155,156,157,158,159,160,161,162,163,164,165,166,167,168,169,170,171,172,173,174,175,176,177,178,179,180,181,182,183,184,185,186,187,188,189,190,191,192,193,194,195,196,197,198,199,200,202,203,204,205,206,207,208,209,210,211,212,213,214,215,216,217,218,219,220,221,222,223,224,225,226,227,228,229,230,231,232,233,234,235,236,237,238,239,240,241,242,243,244,245,246,247,248,249,250,251,252,253,254,255,256,257,258,259,260,261,262,263,264,265,266,267,268,269,270,271,272,273,274,275,276,277,278,279,280,281,282,283,284,285,286,287,288,289,290,291,292,293,294,295,296,297,298,299,300,301,302,303,304,305,306,307,308,309,310,311,312,313,314,315,316,317,318,319,320,321,322,323,324,325,326,327,328,329,330,331,332,333,334,335,336,337,338,339,340,341,342,343,344,345,346,347,348,349,350,351,352,353,354,355,356,357,358,359,360,361,362,363,364,365,366,367,368,369,370,371,372,373,374,375,376,377,378,379,380,381,382,383,384,385,386,387,388,389,390,391,392,393,394,395,396,397,398,399,400,401,402,403,404,405,406,407,408,409,410,411,412,413,414,415,416,417,418,419,420,421,422,423,424,425,426,427,428,429,430,431,432,433,434,435,436,437,438,439,441,442,443,444,445,446,447,448,449,450,451,452,453,454,455,456,457,458,459,460,461,462,463,464,465,466,467,468,469,470,471,472,473,474,475,476,477,478,479,480,481,482,483,484,485,486,487,488,489,490,491,492,493,494,495,496,497,498,499,500,501,502,503,504,505,506,507,508,509,510,511,512,513,514,515,516,517,518,519,520,521,522,523,524,525,526,527,528,529,530,531,532,533,534,535,536,537,538,539,540,541,542,543,544,545,546,547,548,549,550,551,552,553,554,555,556,557,558,559,560,561,562,563,564,565,566,567,568,569,570,571,572,573,574,575,576,577,578,579,580,581,582,583,584,585,586,587,588,589,590,591,592,593,594,595,596,597,598,599,600,601,602,603,604,605,606,607,608,609,610,611,612,613,614,615,616,617,618,619,620,621,622,623,624,625,626,627,628,629,630,631,632,633,634,635,636,637,638,639,640,641,642,643,644,645,646,647,648,649,650,651,652,653,654,655,656,657,658,659,660,661,662,663,664,665,666,667,668,669,670,671,672,673,674,675,676,677,678,680,681,682,683,684,685,686,687,688,689,690,691,692,693,694,695,696,697,698,699,700,701,702,703,704,705,706,707,708,709,710,711,712,713,714,715,716,717,718,719,720,721,722,723,724,725,726,727,728,729,730,731,732,733,734,735,736,737,738,739,741,742,743,744,745,746,747,748,749,750,751,752,753,754,755,756,757,758,759,760,761,762,763,764,765,766,767,768,769,770,771,772,773,774,775,776,777,778,779,780,781,782,783,784,785,786,787,788,789,790,791,793,794,795,796,797,798,799,800,801,802,803,804,805,806,807,808,809,810,811,812,813,814,815,816,817,818,819,820,821,822,823,824,825,826,827,828,0,1,2,3,4,5,6,7,9,10,11,12,13,14,15,16,17,18,19,20,21,23,24,26,27,28,29,30,31,32,33,34,35,36,37,38,39,40,41,43,44,45,46,47,48,49,50,51,52,53,54,55,56,57,58,59,60,61,62,63,64,65,67,68,69,71,72,73,74,75,76,77,78,79,80,81,82,83,84,85,86,87,88,89,90,91,92,93,94,95,96,97,98,99,101,103,104,105,106,107,108,109,110,111,112,113,114,115,117,118,119,120,121,123,124,125,126,127,128,129,130,131,132,134,135,136,137,138,139,140,141,142,143,144,145,146,147,148,149,150,151,152,153,154,155,156,157,158,159,160,161,162,164,165,166,167,168,169,170,171,173,174,175,176,177,178,179,180,181,182,183,184,185,186,188,189,191,192,193,194,195,196,197,198,199,200,201,202,203,204,205,206,207,208,209,210,211,212,213,214,215,216,217,218,219,220,221,222,223,224,225,226,227,228,229,230,231,232,233,234,235,236,237,238,240,241,242,243,244,245,246,247,248,249,250,251,252,253,254,255,256,257,258,259,260,261,262,263,264,265,267,269,270,271,272,274,275,276,277,278,279,280,281,282,283,284,285,286,287,288,289,290,291,292,293,294,295,296,297,298,299,300,301,302,303,304,305,306,307,308,309,310,311,312,313,314,315,316,317,318,319,320,321,322,323,324,325,326,327,328,329,330,332,333,334,335,336,337,338,340,342,343,344,345,346,347,348,349,350,351,352,353,354,355,356,357,358,360,361,362,364,365,366,368,369,370,372,373,374,375,376,377,378,379,380,381,383,384,385,386,387,388,389,391,392,393,394,395,396,397,398,399,400,401,402,403,404,405,406,407,408,409,410,411,412,413,414,415,416,417,418,420,421,423,424,425,426,427,428,429,430,431,432,433,434,435,436,437,438,439,440,441,442,443,444,446,447,448,449,450,451,452,453,454,455,456,457,458,459,460,462,463,464,465,466,467,468,469,470,471,472,473,474,476,477,478,479,480,481,482,483,484,485,486,487,488,489,490,491,492,493,494,496,498,500,501,502,503,504,505,506,507,508,509,510,511,512,513,514,515,516,517,518,519,520,521,522,523,524,525,527,528,529,530,531,532,533,534,535,536,537,538,539,540,541,543,544,545,547,548,549,550,551,553,554,555,556,557,558,559,560,561,562,563,564,565,566,567,568,569,570,571,572,573,574,575,576,578,579,580,581,582,583,584,585,586,587,588,589,590,591,592,593,594,596,597,598,599,600,601,602,603,604,605,606,607,608,610,611,612,613,614,615,618,619,620,621,622,623,624,625,626,627,628,629,630,631,632,633,634,635,636,637,638,639,640,641,642,643,644,645,647,648,649,650,651,653,654,655,656,657,658,659,660,661,662,664,665,666,667,668,669,670,671,672,673,674,675,676,677,678,679,680,682,683,684,685,687,688,689,690,691,692,693,694,695,696,697,698,699,700,701,702,703,704,705,707,708,709,710,711,712,713,714,715,716,717,718,719,720,722,723,724,725,726,727,728,729,730,731,732,733,734,735,736,737,738,739,740,741,742,743,744,745,746,747,748,749,750,751,752,753,754,755,756,757,758,759,760,761,762,763,764,765,766,768,769,770,771,772,773,774,775,776,778,780,781,784,785,786,787,789,790,792,793,796,797,799,800,801,802,803,804,805,806,807,808,809,810,811,813,814,815,816,817,818,819,820,821,822,823,824,825,826,827,828,0,1,2,3,4,5,6,7,8,9,10,11,12,14,15,16,17,18,19,20,21,22,23,24,25,26,27,28,29,30,31,32,33,34,35,36,37,38,39,40,42,43,44,46,47,48,49,50,51,53,54,55,56,57,58,59,60,61,62,64,65,66,67,68,69,70,71,72,73,74,75,76,77,78,79,80,81,83,84,85,87,88,89,91,92,93,94,95,96,97,98,99,100,101,102,103,104,105,106,107,108,109,110,111,112,113,115,116,118,119,120,121,122,123,124,125,126,127,128,129,130,131,132,133,134,135,136,137,138,139,140,141,142,143,144,145,146,147,149,150,151,152,153,154,155,156,158,159,161,162,163,164,165,166,167,168,169,170,171,172,173,174,175,176,177,178,179,180,181,182,183,184,185,186,187,188,189,190,191,192,193,194,195,196,197,198,199,200,201,202,203,204,205,206,207,208,209,210,212,213,214,215,216,217,218,219,220,222,223,224,225,226,228,230,231,232,233,235,236,237,238,239,240,242,243,244,245,246,247,248,249,250,251,252,253,254,255,256,257,258,259,260,261,262,263,264,265,266,267,268,269,270,271,272,274,275,276,277,278,279,280,281,282,283,284,285,286,287,288,289,290,291,292,293,294,295,296,297,298,299,300,301,302,303,304,305,306,307,308,309,311,312,313,314,315,316,317,318,319,320,321,322,323,324,325,326,327,328,329,330,331,332,333,334,335,336,337,338,339,340,341,342,343,344,345,346,347,348,349,350,351,352,353,354,355,356,357,358,359,360,361,362,363,364,365,366,368,369,370,372,373,374,375,376,377,378,379,380,381,382,383,384,385,386,387,388,389,390,391,392,393,394,395,396,397,399,400,401,403,404,406,407,408,409,410,411,412,413,414,415,416,417,418,419,421,422,423,424,425,426,427,428,429,430,431,432,433,434,435,436,437,438,439,440,441,442,443,445,446,447,449,450,452,453,454,455,456,457,458,459,460,461,462,463,464,465,466,467,468,469,470,471,472,473,474,475,476,477,478,479,480,481,483,484,485,486,487,488,489,490,491,492,493,494,495,496,497,498,499,500,501,502,503,504,505,506,507,508,509,512,514,515,516,517,518,519,520,521,522,525,526,527,528,529,530,531,532,533,534,535,536,537,538,539,540,541,542,543,544,545,546,547,548,549,551,552,553,554,555,557,558,559,560,561,562,563,564,565,566,568,569,570,571,572,573,574,575,576,577,579,580,582,584,585,586,587,588,589,590,591,592,593,594,595,596,597,598,599,600,601,602,603,604,605,606,607,609,610,611,612,613,614,615,616,617,618,619,620,621,622,623,624,625,626,627,628,629,630,631,632,633,634,635,636,637,638,639,640,641,642,643,644,645,646,647,648,649,650,651,652,653,654,655,656,657,658,659,660,661,662,663,664,665,667,668,669,670,671,672,673,674,675,676,677,678,679,680,681,682,683,684,685,686,687,688,689,691,692,695,696,697,698,699,700,701,702,703,704,706,707,709,710,711,712,713,714,715,716,717,718,719,720,721,723,724,725,726,727,728,729,730,731,732,733,734,736,737,738,739,740,741,742,743,745,746,747,749,750,751,752,753,755,756,757,758,759,760,761,762,763,764,765,766,767,768,769,770,771,772,773,774,775,776,777,778,779,780,781,782,783,784,785,786,787,788,789,790,791,792,793,794,795,796,797,799,800,802,803,804,807,808,810,812,814,815,816,817,818,820,821,822,823,824,825,827,828,0,1,2,3,4,5,6,7,8,9,10,11,12,13,14,15,16,17,18,19,20,22,23,24,25,26,27,28,29,30,31,32,34,35,36,38,39,40,41,42,43,44,45,46,47,48,49,50,51,52,53,54,55,56,58,59,60,61,62,63,65,66,67,68,69,70,71,72,73,74,75,76,78,80,81,82,83,86,87,88,89,90,91,92,93,94,95,96,98,99,100,101,102,104,105,106,108,109,110,111,112,113,114,115,116,117,118,119,120,121,122,123,124,126,127,128,130,131,132,134,135,136,137,138,139,140,141,142,143,144,145,146,147,148,149,150,151,152,153,154,155,156,157,158,159,160,161,162,163,164,165,166,167,169,170,171,172,173,174,175,176,177,179,181,183,184,185,186,187,188,189,191,192,193,194,195,196,197,198,200,201,202,203,204,206,207,208,209,210,211,212,213,214,215,216,217,218,220,221,222,223,224,225,226,228,229,230,231,232,233,234,235,236,237,238,239,240,241,242,243,244,246,247,248,249,250,251,252,254,255,256,257,258,259,260,261,262,263,264,265,266,267,268,269,271,272,274,275,276,277,278,279,280,281,282,283,284,285,286,287,288,289,292,293,294,295,296,297,298,299,300,301,303,304,305,306,307,308,309,310,311,312,313,314,315,316,317,318,319,320,321,322,323,324,326,327,328,329,330,331,332,334,335,336,337,338,339,340,341,342,343,344,345,346,347,348,349,350,351,352,353,354,355,356,357,358,359,360,361,362,363,364,365,366,367,368,369,370,371,373,374,375,376,377,378,379,380,381,382,383,384,385,386,387,388,389,390,391,392,393,394,395,396,397,398,399,400,401,403,404,405,407,408,409,410,411,412,413,414,415,417,418,419,420,421,422,423,424,425,426,427,428,429,432,433,434,436,437,438,439,440,441,442,443,444,445,446,447,448,449,450,451,452,453,455,456,457,458,459,460,461,462,463,464,465,466,467,468,469,470,471,472,473,474,475,476,477,478,479,480,481,482,483,484,485,486,487,488,490,491,492,493,494,495,496,497,499,500,501,502,503,504,505,506,507,508,509,511,512,513,514,516,517,518,519,520,521,522,523,524,525,526,527,528,529,530,531,533,534,535,536,537,538,539,541,542,543,544,545,546,547,548,549,550,551,552,553,554,555,556,558,559,560,561,562,563,564,565,566,567,568,569,570,571,572,573,574,575,576,577,579,580,581,583,584,585,586,587,588,589,590,591,592,593,594,595,596,597,598,599,600,601,602,603,604,605,606,607,608,609,610,611,612,613,614,615,616,617,618,619,620,621,622,623,624,626,627,628,629,630,631,633,634,635,636,637,638,639,640,641,642,643,644,645,646,647,648,649,650,651,652,653,654,655,656,657,658,659,660,661,662,663,664,665,666,667,668,669,670,671,672,673,674,675,676,677,679,680,682,683,684,685,686,687,688,689,690,691,692,693,694,695,696,697,698,699,700,701,702,703,704,705,707,708,709,710,711,712,713,714,715,716,718,719,720,721,722,723,724,725,726,727,728,729,730,731,732,733,734,735,736,737,738,739,740,741,742,743,744,745,747,748,749,750,751,752,753,754,755,756,758,759,760,761,762,763,764,765,766,767,768,769,770,771,772,773,774,775,776,777,778,779,780,781,782,783,784,786,787,789,790,791,792,793,795,797,798,799,800,801,803,804,805,806,807,808,809,810,811,812,813,814,815,816,817,818,819,820,821,822,823,824,825,826,827,828,0,1,2,3,4,5,6,7,8,9,10,11,12,13,14,15,16,17,18,19,20,21,22,23,24,25,26,27,28,29,31,32,33,34,35,36,37,38,39,41,42,43,44,45,46,47,48,49,50,51,52,53,54,55,56,57,58,59,60,61,62,64,66,67,68,70,71,72,73,74,75,76,77,78,79,80,81,82,83,84,85,86,87,88,89,90,91,92,93,94,95,96,97,98,100,101,102,103,105,106,107,108,109,111,112,113,114,115,116,117,118,119,120,121,123,124,125,126,127,128,129,130,131,132,133,134,135,136,137,138,139,141,142,143,144,145,146,147,150,151,153,154,155,156,157,158,159,160,163,164,165,166,167,168,169,170,172,173,174,175,176,177,178,179,180,181,183,184,185,186,187,188,189,190,191,192,193,194,195,196,197,198,199,200,201,202,203,204,205,206,207,208,209,211,212,213,214,215,216,217,218,219,221,222,223,225,226,228,229,230,231,232,233,234,235,236,237,238,239,240,241,242,243,244,245,246,247,248,249,250,251,252,253,254,255,256,257,259,260,261,262,263,264,265,266,267,268,269,270,271,272,273,274,275,276,278,279,280,281,283,284,285,286,287,288,289,290,291,292,293,294,295,296,297,298,299,301,302,303,304,305,306,307,308,309,310,311,312,313,314,315,316,317,318,319,320,321,322,323,324,325,326,327,328,329,330,331,333,334,336,337,338,339,340,341,342,344,345,346,347,348,349,350,351,352,353,354,355,357,358,359,360,361,362,363,364,365,366,368,369,370,371,372,373,374,375,376,377,378,379,380,381,382,384,385,386,387,388,389,391,392,393,394,395,396,397,398,399,400,401,403,404,405,406,407,408,409,410,411,412,413,414,415,416,417,418,419,420,421,422,423,424,425,426,427,428,429,430,431,432,433,434,435,436,437,438,439,440,441,442,443,444,445,446,447,448,449,450,451,452,453,454,455,456,457,458,459,461,462,463,464,465,466,467,468,469,470,471,472,474,475,476,477,478,479,480,481,482,483,484,485,486,487,488,489,490,491,492,493,494,495,496,498,499,500,501,502,503,504,505,506,507,508,511,512,513,514,515,516,517,518,519,520,521,522,523,524,525,526,527,528,529,530,531,532,533,534,535,536,537,538,539,540,541,542,543,544,545,546,547,548,549,550,551,552,553,554,555,557,558,559,560,561,562,563,564,565,567,568,569,570,571,572,573,574,575,576,577,578,579,580,581,582,584,585,586,587,588,589,590,591,593,594,595,596,597,598,599,601,602,603,604,605,607,608,609,611,613,614,615,616,617,618,619,620,621,622,623,624,625,626,627,628,629,630,631,632,633,634,635,636,637,638,639,640,641,642,644,645,647,648,649,650,651,652,653,655,656,657,658,660,661,662,664,665,666,667,668,669,670,671,672,673,674,675,676,677,678,679,680,681,682,683,684,685,686,687,688,689,690,691,692,693,694,695,696,697,698,699,700,701,702,703,704,705,707,708,709,710,711,713,714,715,716,718,719,720,722,723,724,727,728,729,731,732,733,734,735,736,737,738,739,740,741,742,743,744,745,746,747,748,749,750,751,752,753,754,755,756,757,758,759,760,761,762,763,764,765,766,767,768,769,770,771,773,774,775,776,777,778,779,781,782,783,784,785,786,787,788,789,790,791,792,794,795,796,797,798,799,800,801,802,803,804,805,806,807,808,809,810,811,812,813,814,816,817,818,819,821,822,823,824,825,826,827,828,1,2,3,4,6,7,8,9,10,11,12,13,14,15,16,17,19,20,21,22,23,24,25,26,27,28,29,30,31,32,33,34,35,36,37,38,39,41,42,43,44,45,46,47,48,49,50,51,52,53,54,55,56,57,58,59,61,62,64,66,67,68,69,71,72,73,74,75,76,77,79,80,81,82,83,84,85,86,87,88,89,90,91,92,93,94,95,96,97,98,99,100,101,102,103,104,105,106,107,108,110,111,113,114,116,117,118,119,120,121,122,123,125,126,127,128,129,130,131,132,134,135,136,137,138,139,140,141,142,143,144,145,146,147,148,149,150,151,152,153,154,155,156,157,158,159,160,162,163,164,165,166,167,169,170,171,174,175,176,177,178,179,180,181,182,183,184,185,186,188,189,190,191,192,193,194,195,196,197,198,200,201,202,203,204,205,206,208,209,211,212,213,214,215,216,217,218,219,220,221,222,223,224,225,226,227,228,229,230,231,232,233,234,235,236,237,238,239,240,242,244,245,246,247,248,249,250,251,252,253,254,255,256,257,258,260,261,262,263,264,265,266,267,268,269,270,271,272,274,275,276,277,278,279,280,281,282,283,284,286,287,288,289,290,291,292,293,294,296,297,298,299,300,301,302,303,304,306,307,308,309,310,311,312,313,314,315,316,317,318,319,320,322,323,324,325,326,327,328,329,330,331,333,334,335,337,338,339,340,341,342,343,344,345,346,347,348,349,350,351,352,353,354,355,356,357,358,359,360,361,362,363,364,365,366,367,369,370,371,372,373,374,375,376,377,379,380,381,382,383,384,385,386,387,388,389,390,391,392,393,394,395,396,397,398,399,400,401,402,403,404,405,406,407,408,409,410,411,412,413,414,415,416,417,418,419,421,422,423,424,425,426,427,428,429,430,431,432,433,435,436,437,438,439,440,441,442,443,444,445,446,448,450,451,452,453,454,455,456,458,459,460,461,462,463,464,465,466,467,468,470,471,472,473,474,475,476,477,478,479,480,481,483,484,485,486,487,488,490,491,492,493,494,495,496,497,498,499,500,501,502,503,504,506,507,508,509,511,512,513,514,515,516,517,518,519,520,521,522,523,524,525,526,528,529,530,531,532,533,534,535,536,537,538,539,540,541,542,543,544,545,546,547,548,549,550,551,552,553,554,555,556,557,558,559,560,562,563,564,565,566,567,568,569,570,571,572,573,574,575,577,579,580,581,582,583,584,585,586,587,588,589,590,591,592,593,594,595,596,597,598,599,600,601,602,603,604,605,606,607,608,609,610,611,612,613,614,615,616,617,618,619,620,621,623,624,625,626,627,628,629,630,631,632,633,634,635,636,638,639,640,641,642,643,644,645,646,647,648,650,651,652,653,654,655,656,657,658,659,660,661,662,663,664,666,667,668,669,670,671,672,673,674,675,676,677,678,679,680,681,682,683,684,685,686,687,688,689,690,691,692,693,694,695,696,697,698,699,700,701,702,703,704,706,707,708,709,710,711,712,713,714,715,716,717,719,720,721,722,723,725,726,727,728,730,732,733,734,735,736,737,738,739,740,741,742,743,744,745,746,747,748,749,750,751,752,753,756,757,758,759,760,761,762,763,764,765,766,767,768,769,770,771,772,773,774,775,776,777,778,779,780,781,782,783,784,785,786,787,788,789,790,791,793,794,795,796,797,798,799,800,801,803,804,805,806,807,808,809,810,811,812,813,814,815,816,818,819,820,821,822,823,824,825,826,827,828,0,1,2,3,4,5,6,7,8,9,10,11,12,13,14,15,16,17,18,19,22,23,24,25,26,27,28,29,30,32,33,34,35,36,37,38,39,40,41,42,43,44,45,46,47,48,49,50,51,52,53,54,55,56,57,58,59,60,61,62,63,64,65,66,67,68,69,70,72,73,74,75,76,77,78,79,80,81,82,83,84,85,86,87,88,89,90,91,92,93,94,95,96,97,98,99,100,101,102,103,104,105,106,107,108,109,110,111,112,113,114,115,116,117,118,119,120,121,122,123,124,125,126,127,128,129,130,131,132,133,134,135,136,137,138,139,140,141,142,143,144,145,146,147,148,149,150,151,152,153,154,155,156,157,158,159,160,161,163,164,165,166,167,168,169,170,171,172,173,174,175,176,177,178,179,180,181,182,183,184,185,186,187,188,189,190,191,192,193,194,195,196,197,198,199,200,201,202,203,204,205,207,208,209,210,211,212,213,214,215,216,217,218,219,220,221,222,223,224,225,226,227,228,229,230,231,232,233,234,235,236,237,238,239,240,241,242,243,244,245,246,247,248,249,250,251,253,254,255,256,257,258,259,260,261,262,263,264,265,266,267,268,269,270,271,272,273,274,275,276,277,278,279,280,281,282,283,284,285,286,287,288,289,290,291,292,293,294,295,296,297,298,299,301,302,303,304,305,306,307,308,309,310,311,312,313,314,315,316,317,318,319,320,321,322,323,324,325,326,327,328,329,330,331,332,333,334,335,336,337,338,339,340,341,342,343,344,345,346,347,348,349,350,351,352,353,354,355,356,357,358,359,360,361,362,363,364,365,366,367,369,370,372,373,374,375,376,377,378,379,380,381,382,383,384,385,386,387,388,389,390,391,392,393,394,395,396,397,398,399,400,401,402,403,404,406,407,408,409,410,411,412,413,414,415,416,417,418,419,420,421,422,423,424,425,426,427,428,429,430,431,432,433,434,435,436,437,439,440,441,442,443,444,445,446,448,449,450,451,452,453,454,455,456,457,458,459,460,462,463,464,465,466,467,468,469,470,471,472,473,474,475,476,477,478,479,480,481,482,483,484,485,486,487,488,489,490,491,492,494,495,496,497,498,499,500,501,502,503,504,505,506,507,508,509,511,512,513,514,515,516,517,518,519,520,521,522,523,524,525,526,527,528,529,530,531,532,533,534,535,536,537,538,539,540,541,542,543,544,545,546,547,548,549,550,551,552,553,554,555,556,557,558,559,560,561,562,563,564,565,566,567,568,569,570,571,572,573,574,575,576,577,578,579,580,581,582,583,584,585,586,587,588,589,590,591,592,593,594,595,596,597,598,599,600,601,602,603,604,605,606,607,608,609,610,611,612,613,614,615,616,617,618,619,620,621,622,623,624,625,626,627,628,629,630,631,632,633,634,635,636,637,638,639,640,641,642,644,645,646,647,648,649,650,651,652,653,654,655,656,657,658,659,660,661,662,664,665,666,667,668,669,670,671,672,673,674,675,676,677,678,679,680,681,682,683,684,685,686,687,688,689,690,691,692,693,694,695,696,697,698,699,700,701,702,703,704,705,706,707,708,709,710,711,712,713,714,715,716,717,718,720,722,723,724,725,726,727,728,729,730,731,732,733,734,735,736,737,738,739,740,741,742,743,744,745,746,747,748,749,750,751,752,753,754,756,757,758,759,760,761,762,763,764,765,766,768,769,770,771,772,773,774,775,776,777,778,779,780,781,782,783,784,785,786,787,788,789,790,791,792,793,794,795,796,797,798,799,800,801,802,803,804,805,806,807,808,809,810,811,812,813,814,815,816,817,818,819,820,821,822,823,824,825,826,827,828],"categories_nodes":[14,20,21,22,24,26,30],"categories_segments":[0,824,1590,2356,3122,3888,4655],"categories_sizes":[824,766,766,766,766,767,807],"default_left":[0,0,0,0,0,0,0,0,0,0,0,0,0,0,0,0,0,0,0,0,0,0,0,0,0,0,0,0,0,0,0,0,0,0,0,0,0,0,0,0,0,0,0,0,0,0,0,0,0,0,0,0,0,0,0,0,0,0,0,0,0,0,0],"id":4,"left_children":[1,3,5,7,9,11,13,15,17,19,21,23,25,27,29,31,33,35,37,39,41,43,45,47,49,51,53,55,57,59,61,-1,-1,-1,-1,-1,-1,-1,-1,-1,-1,-1,-1,-1,-1,-1,-1,-1,-1,-1,-1,-1,-1,-1,-1,-1,-1,-1,-1,-1,-1,-1,-1],"loss_changes":[1.4741754E7,2.7258482E6,2.626438E6,3.822395E5,3.7820134E5,5.01234E5,6.50932E5,6.06755E4,4.9237375E4,5.605767E4,3.0889938E4,6.2528125E4,7.1047E4,1.94377E5,2.1022675E5,9.451E3,9.08425E3,6.9815E3,5.6198125E3,9.110844E3,7.9606006E3,8.601094E3,1.38478125E4,1.58469375E4,1.383525E4,1.689825E4,1.141625E4,2.386175E4,3.664825E4,3.2203134E5,9.9887E4,0E0,0E0,0E0,0E0,0E0,0E0,0E0,0E0,0E0,0E0,0E0,0E0,0E0,0E0,0E0,0E0,0E0,0E0,0E0,0E0,0E0,0E0,0E0,0E0,0E0,0E0,0E0,0E0,0E0,0E0,0E0,0E0],"parents":[2147483647,0,0,1,1,2,2,3,3,4,4,5,5,6,6,7,7,8,8,9,9,10,10,11,11,12,12,13,13,14,14,15,15,16,16,17,17,18,18,19,19,20,20,21,21,22,22,23,23,24,24,25,25,26,26,27,27,28,28,29,29,30,30],"right_children":[2,4,6,8,10,12,14,16,18,20,22,24,26,28,30,32,34,36,38,40,42,44,46,48,50,52,54,56,58,60,62,-1,-1,-1,-1,-1,-1,-1,-1,-1,-1,-1,-1,-1,-1,-1,-1,-1,-1,-1,-1,-1,-1,-1,-1,-1,-1,-1,-1,-1,-1,-1,-1],"split_conditions":[4.6249172E-1,-4.4203308E-1,1.8250037E0,-8.4277195E-1,2.7403835E-2,1.0578752E0,3.8515973E0,-1.0717655E0,-6.366777E-1,-1.7869043E-1,2.5639746E-1,7.3728406E-1,1.4242649E0,2.5692332E0,NaN,-1.2091618E0,-9.572688E-1,-7.282751E-1,-5.2218086E-1,-3.160866E-1,NaN,NaN,NaN,1.8189481E0,NaN,3.5386338E0,NaN,2.1570446E0,2.935623E0,1.8655481E0,NaN,-1.2400322E0,-1.0946808E0,-9.819504E-1,-8.69544E-1,-7.600741E-1,-6.585919E-1,-5.633253E-1,-4.6780816E-1,-3.6655328E-1,-2.5299442E-1,2.246032E-1,-1.0164731E-1,4.8098356E-1,1.2093361E-1,6.946643E-1,2.9981396E-1,5.445589E-1,1.0590905E0,1.2097653E0,8.187311E-1,1.1570979E0,2.8748064E0,1.8207983E0,1.4876293E0,1.8890702E0,2.2243173E0,2.575707E0,3.1849363E0,-2.6411417E0,2.8524158E1,6.3793535E0,4.1290183E0],"split_indices":[12,12,12,12,12,12,12,12,12,12,12,12,12,12,0,12,12,12,12,12,0,0,0,13,0,13,0,12,12,17,0,0,0,0,0,0,0,0,0,0,0,0,0,0,0,0,0,0,0,0,0,0,0,0,0,0,0,0,0,0,0,0,0],"split_type":[0,0,0,0,0,0,0,0,0,0,0,0,0,0,1,0,0,0,0,0,1,1,1,0,1,0,1,0,0,0,1,0,0,0,0,0,0,0,0,0,0,0,0,0,0,0,0,0,0,0,0,0,0,0,0,0,0,0,0,0,0,0,0],"sum_hessian":[2.52108E5,1.84603E5,6.7505E4,1.01708E5,8.2895E4,5.3756E4,1.3749E4,4.8653E4,5.3055E4,4.8503E4,3.4392E4,3.2032E4,2.1724E4,1.2762E4,9.87E2,1.9389E4,2.9264E4,2.7738E4,2.5317E4,2.8346E4,2.0157E4,1.9412E4,1.498E4,1.6712E4,1.532E4,1.2555E4,9.169E3,8.725E3,4.037E3,1.3E1,9.74E2,7.235E3,1.2154E4,1.3309E4,1.5955E4,1.5585E4,1.2153E4,1.4542E4,1.0775E4,1.353E4,1.4816E4,7.77E2,1.938E4,6.87E2,1.8725E4,9.48E2,1.4032E4,1.609E4,6.22E2,9.7E2,1.435E4,1.2498E4,5.7E1,1.208E3,7.961E3,4.797E3,3.928E3,2.022E3,2.015E3,5E0,8E0,2.84E2,6.9E2],"tree_param":{"num_deleted":"0","num_feature":"38","num_nodes":"63","size_leaf_vector":"1"}},{"base_weights":[8.9368847E-4,-4.575478E0,1.035418E1,-7.545538E0,-1.1212039E0,7.127516E0,2.0396969E1,-9.467192E0,-6.1676006E0,-2.7700682E0,7.637294E-1,4.9189014E0,1.0121685E1,1.835721E1,3.7667057E1,-1.076204E1,-8.8511915E0,-7.124084E0,-5.3645396E0,-3.493899E0,-1.8734878E0,-1.8162408E-1,1.7527394E0,3.6022506E0,6.0526266E0,8.604384E0,1.1639027E1,1.636731E1,2.3069372E1,1.0140574E2,3.63034E1,-1.1628418E0,-1.0408028E0,-9.3882054E-1,-8.4397393E-1,-7.537318E-1,-6.7411256E-1,-5.843191E-1,-4.8981944E-1,-3.4062502E-1,-5.8278006E-1,-1.7557451E-1,-4.6278477E-1,-6.6865357E-3,-3.3648393E-1,4.617188E-1,1.5874581E-1,6.970112E-1,3.4156004E-1,-1.1798066E0,6.095822E-1,1.1987891E0,8.33007E-1,1.1548804E0,2.6729681E0,1.5092281E0,1.820452E0,2.2112668E0,2.6769466E0,-3.213585E0,1.2984477E1,4.933946E0,3.290487E0],"categories":[0,1,2,3,4,5,6,7,8,9,10,11,12,13,14,15,16,17,18,19,21,22,23,24,25,26,27,28,29,30,31,32,33,34,35,36,37,38,39,40,41,42,43,44,45,46,47,48,49,50,51,52,53,54,55,56,57,58,59,60,61,62,63,64,65,66,67,68,69,70,71,72,73,74,75,76,77,78,79,80,81,82,83,84,85,86,87,88,89,90,91,92,93,94,95,96,97,98,99,100,101,102,103,104,105,106,107,108,109,110,111,112,113,114,115,116,117,118,119,120,121,122,123,124,125,126,127,128,129,130,131,132,133,134,135,136,137,138,139,140,141,142,143,144,145,146,147,148,149,150,151,152,153,154,155,156,157,158,159,160,161,162,163,164,165,166,167,168,169,170,171,172,173,174,175,176,177,178,179,180,181,182,183,184,185,186,187,188,189,190,191,192,193,194,195,196,197,198,199,200,202,203,204,205,206,207,208,209,210,211,212,213,214,215,216,217,218,219,220,221,222,223,224,225,226,227,228,229,230,231,232,233,234,235,236,237,238,239,240,241,242,243,244,245,246,247,248,249,250,251,252,253,254,255,256,257,258,259,260,261,262,263,264,265,266,267,268,269,270,271,272,273,274,275,276,277,278,279,280,281,282,283,284,285,286,287,288,289,290,291,292,293,294,295,296,297,298,299,300,301,302,303,304,305,306,307,308,309,310,311,312,313,314,315,316,317,318,319,320,321,322,323,324,325,326,327,328,329,330,331,332,333,334,335,336,337,338,339,340,341,342,343,344,345,346,347,348,349,350,351,352,353,354,355,356,357,358,359,360,361,362,363,364,365,366,367,368,369,370,371,372,373,374,375,376,377,378,379,380,381,382,383,384,385,386,387,388,389,390,391,392,393,394,395,396,397,398,399,400,401,402,403,404,406,407,408,409,410,411,412,413,414,415,416,417,418,419,420,421,422,423,424,425,426,427,428,429,430,431,432,433,434,435,436,437,438,439,441,442,443,444,445,446,447,448,449,450,451,452,453,454,455,456,457,458,459,460,461,462,463,464,465,466,467,468,469,470,471,472,473,474,475,476,477,478,479,480,481,482,483,484,485,486,487,488,489,490,491,492,494,495,496,497,498,499,500,501,502,503,504,505,506,507,508,509,510,511,512,513,514,515,516,517,518,519,520,521,522,523,524,525,526,527,528,529,530,531,532,533,534,535,536,537,538,539,540,541,542,543,544,545,546,547,548,549,550,551,552,553,554,555,556,557,558,559,560,561,562,563,564,565,566,567,568,569,570,571,572,573,574,575,576,577,578,579,580,581,582,583,584,585,586,587,588,589,590,591,592,593,594,595,596,597,598,599,600,601,602,603,604,605,606,607,608,609,610,611,612,613,614,615,616,617,618,619,620,621,622,623,624,625,626,627,628,629,630,631,632,633,634,635,636,637,638,639,640,641,642,643,644,645,646,647,648,649,650,651,652,653,654,655,656,657,658,659,660,661,662,664,665,666,667,668,669,670,671,672,673,674,675,676,677,678,680,681,682,683,684,685,686,687,688,689,690,691,692,693,694,695,696,697,698,699,700,701,702,703,704,705,706,707,708,709,710,711,712,713,714,715,716,717,718,719,720,721,722,723,724,725,726,727,728,729,730,731,732,733,734,735,736,737,738,739,741,742,743,744,745,746,747,748,749,750,751,752,753,754,755,756,757,758,759,760,761,762,763,764,765,766,768,769,770,771,772,773,774,775,776,777,778,779,780,781,782,783,784,785,786,787,788,789,790,791,793,794,795,796,797,798,799,800,801,802,803,804,805,806,807,808,809,810,811,812,813,814,815,816,817,818,819,820,821,822,823,824,825,826,827,828,8,11,25,35,49,65,78,79,88,90,95,100,132,138,140,141,143,148,190,222,224,226,244,246,258,261,270,279,291,305,318,324,359,367,371,377,398,405,411,422,445,458,486,489,490,522,529,550,559,595,600,616,646,647,674,715,730,731,743,756,767,798,825,1,11,17,29,33,74,77,82,95,101,124,127,159,171,174,188,190,216,221,248,270,286,289,300,305,325,333,340,341,350,365,367,373,407,419,441,446,450,457,499,501,524,537,577,590,597,599,630,634,643,668,708,712,719,720,723,733,774,775,803,807,809,811,2,7,13,18,38,41,54,60,61,77,79,132,133,151,157,162,164,191,217,224,226,238,246,259,271,275,276,277,289,291,293,300,311,319,333,345,347,353,406,432,460,499,539,551,573,578,579,583,584,604,611,650,666,694,722,742,747,758,760,776,801,813,817,0,1,2,3,4,5,6,7,8,9,10,11,12,13,14,15,16,17,18,19,20,21,22,23,24,25,26,27,28,29,30,31,32,33,34,35,36,37,38,39,40,42,43,44,45,46,47,48,49,50,51,52,53,54,56,57,58,59,60,62,63,64,65,66,67,68,70,71,72,73,74,75,76,78,80,81,82,83,85,86,87,88,89,90,91,92,93,94,95,96,97,98,99,100,101,102,103,104,105,106,107,108,109,110,111,112,113,115,116,117,118,119,120,121,122,123,124,126,128,130,131,132,133,134,135,136,137,138,139,140,141,142,143,144,145,146,147,149,150,151,152,153,154,155,156,158,159,160,161,162,163,164,165,166,167,168,169,170,171,172,173,174,175,176,177,178,179,180,181,183,184,185,186,187,188,189,190,191,193,194,195,196,197,198,200,201,202,203,204,205,206,207,208,209,210,212,213,214,215,216,217,218,219,220,221,222,223,224,225,226,227,228,229,230,231,232,233,234,235,236,237,238,239,240,241,242,243,244,245,246,247,248,249,250,251,252,253,254,255,256,257,258,259,260,261,262,263,264,265,266,267,268,269,270,273,274,275,276,278,279,280,281,282,283,284,285,286,287,288,289,290,291,292,293,294,295,296,297,298,299,300,302,303,304,305,306,307,308,309,310,312,313,314,315,316,317,318,320,321,322,323,324,326,327,328,329,330,331,332,333,334,335,336,337,338,339,340,341,342,343,344,345,346,347,348,349,350,351,352,354,355,356,357,358,359,360,361,362,363,364,365,366,367,368,369,370,371,372,373,374,375,376,377,378,379,380,381,382,383,384,385,386,387,388,389,390,391,392,393,394,395,396,397,399,400,401,403,404,405,406,407,408,409,410,411,412,413,414,415,416,417,418,419,420,421,422,423,424,425,426,428,429,430,431,432,433,434,436,437,438,439,440,441,442,444,445,446,447,448,449,450,451,452,453,454,455,456,457,459,460,461,462,463,464,465,466,467,468,469,470,471,472,473,474,475,476,477,478,479,480,481,483,484,485,486,487,488,489,490,491,492,493,494,495,496,497,498,501,502,503,504,505,506,507,508,509,510,512,513,514,516,517,518,519,520,521,525,527,528,529,530,531,532,534,535,536,537,538,539,540,541,542,543,544,545,546,547,548,549,550,551,553,554,555,556,557,558,559,560,561,562,563,564,565,566,568,569,570,571,572,573,574,575,576,577,579,580,581,582,583,584,585,586,587,588,589,590,591,592,593,594,595,596,597,598,599,600,601,602,603,604,605,606,607,608,609,610,611,612,613,614,617,618,619,620,621,622,623,624,627,628,629,630,631,632,633,634,635,636,637,638,639,640,641,642,643,644,645,646,647,648,649,651,652,653,654,655,656,657,658,659,660,661,662,663,664,665,667,668,669,670,671,672,673,674,675,676,677,679,680,681,682,683,684,685,686,687,688,689,690,691,692,693,694,695,696,697,698,699,700,701,702,703,704,707,708,709,710,711,712,713,714,715,716,717,718,719,720,721,723,724,725,726,727,728,729,731,732,733,734,736,737,738,739,740,741,742,744,745,746,747,748,749,750,751,753,755,756,757,759,760,761,762,763,764,765,766,767,768,769,770,771,772,773,774,775,776,777,778,779,780,781,783,784,785,786,787,788,789,791,792,793,794,795,796,797,798,799,800,801,802,803,804,805,806,807,808,809,810,811,812,813,814,815,816,817,818,819,820,821,822,823,824,826,827,828,0,1,3,4,5,6,7,8,9,10,11,12,13,14,15,16,17,19,20,21,23,24,25,26,27,29,30,31,32,33,34,35,36,37,38,39,40,41,42,43,44,45,46,47,48,49,50,51,52,53,54,55,56,58,59,60,61,62,63,65,66,67,68,69,70,71,72,73,75,76,78,79,80,81,82,83,86,87,88,89,90,91,92,93,94,95,96,98,99,100,101,102,104,105,106,108,110,111,112,113,114,115,117,118,119,120,121,122,123,125,126,127,128,129,130,131,132,133,134,135,136,137,138,139,141,142,143,144,145,146,147,148,149,150,151,152,153,154,156,157,158,159,160,161,163,164,165,166,167,168,169,170,171,172,173,174,175,176,177,178,179,180,181,182,183,184,186,187,188,189,190,191,192,193,194,195,196,197,198,199,200,201,202,203,204,205,207,208,209,210,211,212,213,214,215,216,217,218,220,221,222,223,224,225,226,227,228,229,230,231,232,233,234,235,236,237,238,239,240,241,242,243,244,247,248,249,250,251,252,253,254,255,256,257,258,259,260,261,262,263,264,266,267,268,269,272,274,275,276,277,278,279,280,281,282,283,284,285,286,287,288,289,290,292,293,294,295,296,297,298,299,300,301,302,303,305,306,307,308,309,310,311,312,313,314,315,316,317,318,319,320,321,322,323,324,325,326,327,328,329,330,331,332,333,334,335,336,337,338,339,340,341,342,343,345,346,347,348,349,350,351,352,353,354,355,356,357,358,359,360,361,362,363,364,365,366,367,368,369,370,371,372,373,374,375,376,377,378,379,380,381,382,383,384,385,386,387,388,389,390,391,392,393,394,395,396,397,398,399,400,401,403,404,405,407,408,409,410,411,412,414,415,416,417,418,419,420,421,422,423,424,425,426,427,428,429,430,431,432,433,434,435,436,437,438,439,440,441,442,443,444,445,446,447,448,449,450,451,452,453,456,457,458,459,460,461,462,463,464,465,466,467,468,469,470,471,472,473,474,475,476,477,478,479,480,481,483,484,485,486,487,488,490,491,492,493,494,496,497,498,499,500,501,502,503,504,505,506,507,508,509,511,512,513,514,515,516,517,518,519,520,521,522,523,524,525,526,527,528,529,530,531,532,533,534,535,536,537,538,539,541,542,543,544,545,546,547,548,549,550,552,553,554,555,556,558,559,560,561,562,563,564,566,567,568,570,571,572,573,574,575,576,577,579,580,581,582,583,584,585,586,587,588,589,590,591,592,593,594,595,596,597,600,601,602,603,604,606,607,608,609,610,611,612,613,614,615,616,617,618,619,620,621,622,623,624,625,626,627,628,629,630,631,633,634,635,636,637,638,639,640,641,642,643,644,645,646,647,648,649,650,651,652,653,654,655,656,657,658,659,660,661,662,663,664,665,666,667,668,669,670,671,672,673,674,675,676,677,678,679,680,681,682,683,684,685,686,687,688,689,691,692,693,694,695,696,697,698,699,700,701,702,703,704,705,707,708,709,710,711,712,713,714,715,716,717,718,719,720,721,722,723,724,725,726,727,728,729,730,731,732,733,734,735,737,738,739,740,741,742,743,744,745,749,750,751,752,753,754,755,756,758,759,760,761,763,764,765,766,767,768,769,770,771,772,773,774,775,776,777,778,779,780,781,782,784,786,787,788,789,790,791,792,793,794,795,796,798,799,800,801,803,805,806,807,808,809,810,811,812,813,814,815,816,817,818,819,820,821,822,823,824,825,826,827,828,0,1,2,3,4,5,6,7,9,10,11,12,13,14,15,16,17,18,19,20,21,22,23,24,26,27,28,29,30,31,32,33,34,35,36,37,38,39,41,42,43,44,45,46,47,48,49,50,51,53,54,55,56,57,58,59,60,61,62,64,66,67,68,69,70,71,72,74,75,76,77,78,79,80,81,82,83,84,85,86,87,88,89,90,91,92,93,94,95,96,97,98,99,100,101,103,104,105,106,108,109,110,111,112,113,114,115,116,117,118,119,120,124,125,126,127,128,129,130,131,132,133,134,135,136,137,138,139,140,141,142,143,144,146,147,149,150,151,152,153,154,155,156,157,158,159,160,163,165,166,169,170,171,172,173,174,175,176,177,178,179,180,181,182,183,184,185,186,187,188,189,190,191,192,193,194,195,196,197,198,199,200,201,202,203,204,205,206,208,209,210,211,212,213,214,215,216,217,218,219,220,221,222,223,225,226,228,229,230,231,232,233,234,235,236,237,238,239,240,241,242,243,244,245,246,247,248,249,250,251,252,253,254,255,256,257,258,259,260,261,262,263,264,265,266,267,268,269,270,271,272,273,274,275,276,278,279,280,281,282,283,284,285,286,288,289,290,291,292,293,294,295,296,297,298,299,302,303,304,305,306,307,308,309,311,312,313,314,315,317,318,319,320,321,322,323,324,325,326,327,328,329,330,331,332,333,334,335,336,337,338,339,340,341,342,343,344,345,346,347,348,349,350,351,352,353,354,355,357,358,359,360,361,362,363,364,365,366,368,369,370,371,372,373,374,375,376,378,379,380,381,382,383,384,385,386,387,388,389,390,391,392,393,394,395,396,397,399,400,402,403,404,405,406,407,408,